871022 300
. 0.18119 0.13836 0.065684 -0.1921 0.021664 0.011064 0.042172 0.20268 0.24896 -0.069305 -0.030421 0.090892 -0.14484 0.082138 -0.067414 0.065555 0.11575 -0.075011 0.072927 -0.0547 -0.092683 -0.079289 -0.06611 -0.027999 -0.041088 -0.022284 0.30336 -0.034389 -0.038824 0.19513 -0.026455 0.0845 -0.031318 -0.11417 -0.039252 -0.083495 0.13822 -0.10079 0.028078 0.0056306 -0.012941 -0.28936 0.040804 0.12963 -0.15143 0.0052775 -0.16359 -0.15405 -0.25907 -0.040242 -0.18784 0.084106 0.0048927 0.037409 -0.0093588 -0.18509 -0.011374 0.0057922 0.095984 0.21862 -0.15652 0.026799 0.042163 0.038891 -0.13303 0.038371 -0.024463 -0.14596 0.0058759 0.076727 0.07 -0.22175 0.13677 0.088154 0.14716 0.19115 -0.15354 0.08131 -0.050195 0.20785 0.10019 0.073443 0.35711 -0.019625 -0.0084498 -0.15768 -0.046387 0.13949 0.12429 -0.048037 0.009666 -0.17332 -0.031141 0.10651 -0.0024993 -0.10569 -0.045052 -0.022756 0.053699 0.063778 -0.059959 0.26613 -0.0070467 0.13475 0.18124 -0.024333 -0.28002 0.12991 -0.23191 -0.014298 -0.11871 0.048445 -0.010923 0.055306 0.073128 -0.048939 -0.080571 -0.20346 -0.066788 0.013991 0.044328 -0.11876 0.075059 -0.31515 -0.081112 -0.13854 -0.18804 0.12694 0.067597 0.043248 0.012177 -0.096264 0.072877 -0.00041768 -0.13404 -0.077194 -0.090527 0.059781 0.12587 -0.038504 -0.13565 -0.12024 0.12588 0.23318 0.26594 -0.15247 -0.0068963 -0.097437 -0.094534 -0.21877 0.075507 -0.038467 -0.066022 0.31866 0.039929 0.14763 -0.001579 0.17358 0.095145 -0.24489 -0.011682 0.020446 0.080186 0.060806 0.021507 -0.037151 -0.058495 -0.12486 0.0090651 -0.0087889 0.04515 -0.037612 -0.072972 0.29198 0.16999 -0.11331 0.08139 0.17388 -0.028248 -0.032581 0.041858 -0.068832 -0.014121 -0.020532 -0.13844 -0.1046 0.049266 -0.16862 -0.1607 0.027428 -0.071299 0.077664 -0.091876 -0.0541 -0.094433 -0.096431 0.019164 -0.06347 -0.35281 -0.29571 0.039935 0.081842 -0.045217 -0.081999 -0.09768 0.095658 0.0049741 -0.15198 -0.13771 0.18794 0.029542 -0.091376 -0.087691 0.037916 0.11709 0.032304 -0.018247 0.045596 0.052862 -0.089216 -0.15756 -0.11877 0.097764 0.18915 0.072878 0.19302 -0.16207 0.10171 0.096401 0.16277 -0.082213 -0.082171 -0.034665 -0.24255 0.29667 -0.30912 0.1048 0.049429 0.043813 0.13062 -0.062679 0.14409 0.065406 0.3196 0.1541 0.041671 0.075566 0.10335 0.12277 -0.20682 -0.26379 -0.063103 0.16584 0.10192 -0.11096 0.12363 0.10795 0.23862 -0.018813 0.14037 -0.064982 -0.029402 0.030489 -0.16691 -0.10354 0.2784 -0.027789 0.10889 0.13835 -0.072017 0.02071 -0.040384 0.20282 -0.18185 0.10958 0.18568 -0.15385 -0.19439 -0.13133 0.13648 0.19683 -0.011708 -0.043573 0.027469 -0.066052 0.082161 0.18354 0.39785 -0.19157 -0.1138 -0.10441 -0.31858 0.024504 -0.20227 0.083449 -0.080116 0.47295 -0.10987 -0.36021 0.010019 
de 0.16479 0.16699 -0.089119 -0.089656 0.14097 -0.12865 0.009929 0.10039 0.11502 -0.0075168 0.12881 0.18425 0.0073509 0.083807 -0.086308 0.21413 -0.089272 -0.18076 -0.031916 0.12998 -0.080908 -0.1322 0.04544 -0.065638 -0.0028528 0.09494 0.14733 0.029539 -0.2241 0.035359 0.10837 0.2174 -0.022818 -0.10779 -0.21026 -0.18601 0.22601 -0.036182 -0.022081 -0.015344 -0.19542 -0.036227 0.025987 0.052363 0.071566 0.010718 0.21795 -0.19041 -0.20726 0.15736 -0.087938 0.003963 0.25132 0.10837 -0.052054 -0.016784 0.14874 0.006859 -0.068647 0.11319 0.017592 -0.061933 -0.091988 -0.076657 -0.20427 0.015897 -0.052347 0.0059456 -0.013176 0.21758 0.32407 -0.23228 -0.045127 0.05098 0.065478 0.16878 -0.10378 0.030475 0.06057 0.10474 -0.15722 0.12152 0.18211 -0.0030135 -0.0010884 -0.042003 -0.025892 0.021325 -0.035526 -0.054808 0.098409 -0.20752 -0.12683 -0.020717 -0.11856 -0.12783 -0.15044 -0.15872 -0.15706 0.11368 -0.095407 0.12026 -0.16672 0.0098017 0.1957 -0.051367 -0.22575 0.17865 -0.30336 0.086464 -0.261 0.14522 0.016269 0.090111 0.11776 0.07852 -0.1036 -0.098167 0.084405 0.042303 0.15911 -0.093426 -0.054191 -0.33069 -0.055454 0.084396 -0.14259 0.17483 0.22463 0.056974 0.11459 0.12761 0.15675 0.032407 -0.12602 -0.071737 0.14259 0.052523 0.085627 0.045669 -0.085302 -0.081556 0.030805 0.3741 0.040483 -0.0071056 0.071506 -0.059159 -0.28653 -0.17236 -0.012852 -0.02865 0.052201 0.23871 -0.3987 0.069021 -0.067662 0.32841 0.10185 -0.26103 0.099693 0.085577 0.081413 -0.08123 -0.097919 -0.2266 -0.15342 0.057401 0.045805 0.13495 -0.039199 0.01715 -0.13253 0.31345 0.018448 -0.29258 0.035427 0.046098 0.10989 0.077891 -0.14308 -0.12223 -0.058379 0.046169 -0.069129 -0.17815 0.0012364 -0.038347 -0.2288 -0.049089 -0.052992 0.0478 0.095936 -0.25075 0.10579 0.1743 -0.17924 0.02433 -0.2041 -0.26502 0.15731 0.080108 -0.041375 -0.043732 -0.060024 0.14162 0.096005 -0.020181 -0.22214 0.077446 0.053568 0.0061934 -0.028307 -0.10664 0.066884 0.0070772 -0.080356 0.020185 0.14905 -0.10337 -0.12421 0.066973 0.10726 -0.012007 0.17656 0.3517 -0.22111 -0.003677 0.2099 0.078413 -0.25108 0.047318 0.040642 0.044647 0.31084 -0.1947 -0.0032355 0.06699 0.0028481 -0.014556 -0.036416 0.0036471 -0.02787 0.13944 -0.0028167 -0.14034 0.0080102 0.1191 0.060105 -0.17397 -0.094639 -0.19546 0.05285 0.10302 -0.073336 0.34764 -0.096314 0.23806 0.0018105 0.045708 0.11447 -0.11851 0.012248 -0.11543 -0.19331 0.091575 0.13497 0.020934 0.22576 -0.051139 -0.16701 -0.079926 0.12819 -0.038142 -0.033439 0.039275 -0.061028 -0.12143 -0.27587 0.054158 0.15445 -0.043124 0.071628 0.16278 -0.08896 0.20183 0.052435 0.218 -0.16445 -0.18419 -0.11213 -0.35877 0.099071 -0.23073 -0.007666 -0.045224 0.32255 -0.032341 -0.21062 -0.035999 
</s> 0.24811 -0.090752 0.18569 0.02823 0.44277 0.13026 0.28663 0.19347 0.61118 0.30051 -0.2426 0.11804 0.046251 -0.49733 0.29397 -0.14827 -0.12775 -0.066934 -0.25319 0.12536 0.018678 -0.35132 0.055992 0.10387 0.0036474 -0.30552 0.09612 0.087923 -0.24628 0.033663 0.26205 0.51635 -0.073523 0.21982 -0.1337 -0.1109 0.21952 -0.50596 0.0020593 0.084739 0.11377 -0.069406 0.20274 0.13228 0.5034 -0.056722 -0.45668 -0.073184 -0.14599 0.0080944 0.45417 0.20476 0.067191 -0.29091 0.15574 0.096811 -0.31357 -0.13068 -0.10014 0.29204 -0.45664 -0.24246 -0.016413 -0.17462 -0.12384 -0.26672 0.13884 -0.14059 0.16623 -0.088277 0.34198 0.060285 0.20962 -0.21534 0.06339 -0.11786 -0.017777 -0.20885 0.094523 0.26865 0.013938 0.031299 -0.090676 -0.3866 0.15429 -0.23936 -0.26205 -0.109 -0.35425 0.050227 -0.17008 -0.055142 -0.035233 0.29303 0.61972 0.23072 -0.59969 -0.21628 -0.077362 -0.018714 0.20428 0.35645 -0.32965 0.044561 0.23108 0.12795 -0.25309 0.20541 -0.38302 -0.033108 -0.22766 0.24047 0.076849 0.13544 0.037015 -0.0034149 0.13369 0.088739 0.22924 -0.011892 -0.078702 0.021297 -0.01013 -0.1279 0.070331 -0.097165 0.27126 -0.37572 -0.21779 0.48187 0.19665 -0.18092 0.077925 0.034594 -0.081739 0.20914 0.11747 -0.12492 0.1077 0.28945 -0.25619 0.14787 0.58331 0.79318 0.61997 0.12517 -0.42947 -0.26983 0.12584 0.21932 -0.069348 -0.21414 -0.12593 0.0058815 0.11617 0.30257 -0.31327 0.43688 0.00099253 -0.094356 0.12539 -0.14368 0.21005 0.05332 -0.072891 0.023526 0.0033351 0.096734 0.070566 0.037153 -0.031191 0.022469 -0.33597 0.15895 0.26136 -0.51162 0.10638 0.11138 0.042208 -0.25821 0.12674 0.070579 0.11396 -0.034862 0.15065 -0.12512 0.14525 -0.21729 -0.20332 -0.11672 -0.047041 -0.097122 0.021882 0.25552 -0.12894 0.026254 0.040047 -0.27941 -0.027569 0.13087 0.37435 -0.45623 0.00025372 0.26065 0.18514 0.1957 0.061706 -0.051585 0.40118 -0.46454 0.093644 -0.54137 -0.16675 -0.020778 0.0092288 0.048282 0.21153 -0.15781 0.12397 0.012779 -0.046754 -0.13101 0.26164 0.26634 -0.060081 -0.16592 -0.04359 0.32655 0.20203 -0.16949 -0.01443 -0.10769 0.26793 -0.31096 0.12034 -0.26737 -0.20081 0.25527 0.28841 -0.22708 0.19318 0.2168 -0.24217 0.14095 0.024789 -0.25762 -0.37089 -0.13262 -0.33816 -0.3471 -0.37359 -0.16314 0.31087 0.097915 -0.14228 0.13297 -0.01788 -0.11835 -0.32749 -0.052392 -0.27949 0.083116 -0.31237 -0.4056 0.35786 0.46915 0.15507 0.141 0.11071 -0.039385 -0.069078 0.098676 0.15943 -0.016427 -0.075094 0.18411 -0.038957 -0.061714 -0.05898 -0.11608 0.44084 -0.37409 0.020891 -0.033548 0.072814 -0.03154 -0.0032874 0.078694 0.06558 0.010676 -0.2107 -0.01769 -0.012737 -0.37455 0.18008 -0.13012 0.24451 -0.36412 0.28345 -0.070393 
, 0.20751 0.23611 0.14504 -0.056323 0.028052 0.1038 0.13747 0.079049 0.1481 -0.065428 -0.21653 0.172 -0.0050776 -0.11562 0.057774 0.063049 -0.01463 -0.0068068 0.024048 0.071244 -0.064214 -0.21845 -0.014291 0.025154 0.024621 -0.12366 0.24432 -0.060051 0.087154 0.14091 -0.097854 0.19565 -0.080104 -0.20445 -0.074281 -0.040498 0.14148 -0.19348 0.040995 -0.06358 0.012017 0.0152 0.10119 -0.03552 0.043325 -0.0057313 -0.14942 -0.033268 -0.059536 -0.18142 0.040927 0.029765 0.1563 -0.017654 -0.20951 -0.050669 0.13058 -0.016512 -0.016382 -0.059698 -0.16672 -0.070618 -0.037778 -0.02015 0.045833 -0.074177 0.22171 -0.1333 0.055286 -0.02094 0.24062 -0.26603 0.097813 -0.10465 0.012389 0.16373 -0.023176 0.0051831 -0.076151 0.0585 -0.063139 -0.0032585 0.13637 0.12556 -0.072862 -0.086536 0.031196 0.080386 -0.016496 0.030622 -0.022127 -0.17019 0.092512 -0.068961 -0.14849 -0.17374 0.017683 -0.069982 0.037637 -0.089964 -0.21066 0.29797 -0.21999 -0.26486 -0.081594 -0.059382 -0.1491 0.22664 -0.23159 -0.029375 -0.13585 -0.043239 -0.11542 -0.0063794 -0.047499 0.027906 -0.12099 -0.18175 -0.085652 -0.017466 0.068012 -0.11522 0.11538 -0.17085 -0.12575 -0.083128 -0.20195 -0.085618 -0.0034759 -0.14006 0.10996 -0.15644 0.065868 -0.15626 -0.092297 -0.15154 -0.072615 0.15211 0.1363 -0.016229 0.025438 0.095363 -0.027094 0.14185 0.046594 -0.12506 -0.060352 0.064317 -0.21714 -0.31147 0.042798 -0.046678 0.0072863 0.20678 -0.10363 -0.044239 0.092594 0.28938 -0.029097 0.018101 -0.11009 -0.12735 -0.21681 0.11706 0.3927 0.038156 -0.12902 -0.098893 -0.068508 0.038132 0.14561 0.044879 0.2033 0.19768 -0.042145 -0.275 -0.0023051 0.15062 0.065748 -0.065548 0.10906 -0.083951 0.14193 -0.11163 0.16875 0.15558 -0.067251 -0.38169 -0.017888 -0.050854 -0.03477 0.11248 0.0097104 0.04222 -0.15654 0.057137 0.14913 0.21812 -0.26969 -0.26882 -0.070642 0.1872 -0.10871 -0.24476 -0.061356 0.19422 0.1602 -0.038788 -0.18557 0.21323 0.20088 -0.18971 -0.089764 -0.12611 0.02523 0.11797 -0.11735 0.069942 0.18388 -0.16075 -0.061895 0.0013165 0.22512 0.14736 -0.06711 0.12971 -0.16633 -0.034205 -0.0010295 0.077506 -0.07479 -0.055055 -0.1003 -0.34743 0.18238 -0.20735 0.011541 -0.076413 -0.10839 0.0088164 -0.071773 0.14387 -0.025725 0.20935 -0.032307 -0.037617 0.033573 0.063076 0.047927 -0.019485 -0.32165 0.057027 0.21873 0.11394 -0.058408 0.16374 0.0046785 0.13867 -0.15712 0.10532 0.044332 -0.099175 -0.1182 -0.010482 0.040987 0.12624 0.054358 0.14313 0.17135 -0.07728 -0.032796 -0.048912 0.047239 0.069494 0.15839 0.042559 0.093336 -0.19659 -0.11843 0.097323 0.1175 -0.13526 -0.10736 -0.0016986 0.019802 -0.0059349 0.2127 0.1396 -0.11749 -0.091478 -0.28152 -0.40888 0.15057 -0.064021 0.092846 0.021007 0.31555 0.071338 -0.11942 0.2009 
van 0.18385 0.072616 0.02553 -0.12092 0.18606 -0.088734 0.036084 0.19363 0.06877 -0.055138 0.012029 0.16576 -0.084989 0.027358 0.05565 0.16095 0.0081793 -0.21832 -0.036776 -0.0046063 -0.10503 -0.010398 -0.01488 -0.15189 0.14014 0.15167 0.19287 0.1053 -0.14136 0.11296 0.16184 0.33344 -0.073448 0.1034 0.026696 -0.19434 0.30937 -0.091159 -0.17959 -0.14731 -0.17546 -0.080852 -0.12872 -0.035513 0.032691 0.0067621 0.20471 -0.30568 -0.12282 0.16694 -0.073098 -0.10158 0.14451 0.19979 -0.076101 -0.03261 0.010347 0.02303 0.045811 0.18045 0.087995 -0.051727 -0.17224 -0.046009 -0.14785 -0.024755 -0.042194 0.30081 0.09508 0.21238 0.1755 -0.32797 0.060275 0.1092 0.11614 0.17981 -0.1177 0.0031572 0.087826 0.023499 -0.0092005 0.14765 -0.00010811 0.012523 -0.052173 -0.078721 0.056237 0.032146 -0.018885 -0.16648 -0.01099 -0.1695 -0.11114 -0.057837 -0.25384 -0.12097 -0.16375 -0.10276 -0.079418 0.039115 0.14674 0.177 -0.27793 0.061411 0.049493 -0.023848 -0.20163 0.17748 -0.053736 0.0027434 -0.067648 0.028773 -0.029471 -0.26143 0.041572 -0.0018741 -0.15774 -0.18786 -0.040986 0.10272 0.12887 -0.11022 0.034448 -0.29588 -0.077111 0.028508 -0.1003 0.02971 0.1464 0.051882 0.064741 0.031052 0.23396 -0.010608 -0.095594 0.010756 0.0076756 0.038933 0.048959 0.074108 0.04159 -0.056423 0.12273 0.15476 0.091356 0.026801 -0.077528 -0.25846 -0.29052 -0.15852 -0.06176 -0.16588 0.004128 0.15104 -0.34533 0.061498 -0.044947 0.25186 0.22355 -0.28103 0.074023 0.094501 -0.030699 -0.0027985 0.068643 -0.15465 -0.11151 -0.053439 -0.0074428 0.077196 0.05079 0.27035 -0.11068 0.29538 0.060882 -0.19423 0.15368 0.0086801 0.23997 -0.066321 0.10375 -0.36261 -0.0619 -0.074545 -0.20986 -0.019796 -0.070173 0.042032 -0.11226 0.025065 -0.14093 0.03751 0.13208 0.010935 0.13725 -0.062441 -0.26893 -0.055689 -0.34082 -0.2786 0.068988 0.080263 -0.12693 0.03364 -0.014328 0.15686 0.022361 0.013813 -0.13626 0.13937 0.089473 0.11269 -0.095947 -0.10882 0.047465 -0.091905 -0.042621 -0.025438 0.25772 -0.13229 -0.07279 0.23614 -0.020192 0.056773 0.19672 0.30356 -0.18308 -0.09069 0.15988 0.095668 -0.21523 -0.1037 -0.19142 0.16776 0.36475 -0.1453 0.069148 -0.095116 0.032413 -0.1724 -0.15862 0.14191 0.041014 0.12605 0.1157 -0.10997 0.13418 0.17642 0.081471 0.008438 -0.12758 -0.087571 0.16844 0.18803 -0.15333 0.21872 0.024656 0.20454 -0.0045943 0.22756 -0.036702 -0.2129 0.10676 -0.065199 -0.12395 -0.0017301 0.052066 0.18164 0.18026 -0.17376 -0.10328 -0.054912 0.10839 0.09256 0.016516 0.15866 -0.20545 -0.014459 -0.10626 0.20906 0.15333 -0.10233 0.092207 0.043623 -0.028191 0.2022 0.0046437 0.31566 0.035496 -0.24173 -0.019744 -0.39329 0.18068 -0.07569 -0.031127 -0.25345 0.29597 -0.16097 -0.17746 0.011293 
- 0.17385 0.24687 0.37713 0.080073 0.30527 0.045059 0.27092 0.13811 0.16819 0.28311 -0.28891 -0.017404 0.077274 -0.19537 0.19321 0.18229 0.025827 0.10653 -0.10173 0.10218 -0.083811 -0.23879 -0.012001 -0.11376 -0.10085 -0.21291 0.21307 0.12099 -0.099064 -0.021765 0.16181 0.064174 0.001583 -0.31155 -0.034952 -0.14715 0.035978 -0.10953 0.16317 -0.057666 0.030901 -0.1986 0.14948 0.12645 -0.27106 0.082459 -0.027829 -0.26548 -0.15829 0.068031 -0.3781 0.22577 0.20718 -0.11673 0.0093989 0.0085979 -0.15703 -0.15256 0.22973 -0.30821 -0.19161 -0.043076 -0.29355 0.01158 0.15325 -0.39555 0.20582 0.28479 0.15614 0.024529 0.32 -0.020476 -0.05788 0.064424 -0.094741 0.14676 -0.16401 0.071009 -0.033014 0.0027082 0.34024 -0.11239 0.060629 -0.012669 0.17398 -0.23761 -0.00048513 -0.043202 0.13081 0.034126 -0.14876 0.10514 0.044232 0.0090225 -0.09715 0.20114 -0.19768 -0.15336 -0.18152 0.09767 0.10212 0.54379 0.16223 -0.048598 -0.034481 0.055266 -0.25416 0.12219 -0.28075 -0.23956 -0.06685 0.12096 -0.36954 0.025063 -0.06879 0.16506 -0.20872 0.071501 0.095981 -0.15215 -0.018171 -0.026553 0.030187 -0.12548 0.32061 -0.26312 0.37187 -0.11087 0.29095 -0.052855 0.027928 -0.19896 0.13852 -0.23114 -0.16684 -0.10416 -0.090714 0.098236 0.016901 -0.14512 -0.1101 0.18814 0.20083 0.33344 0.19879 -0.077594 -0.15183 0.16046 0.056076 -0.095047 -0.11915 -0.031772 -0.083811 -0.025835 -0.020191 0.23303 0.39262 0.11499 0.10257 -0.18035 -0.086523 -0.18704 -0.13731 0.047859 0.0066219 0.012411 -0.15616 -0.03843 -0.026902 -0.11052 0.29323 0.21787 0.34687 0.26098 0.17303 -0.11224 0.050562 0.0027543 -0.083885 0.15002 0.20593 -0.11557 0.093685 0.10215 0.24163 0.2393 -0.3179 -0.4495 0.37377 0.14236 -0.19199 -0.15453 0.18716 0.29076 -0.11081 -0.19672 -0.098606 -0.08238 -0.11762 -0.26044 0.042075 -0.10175 -0.08002 0.10727 0.048437 0.05225 -0.10092 0.24243 0.025084 0.026704 0.061948 0.031487 -0.044976 -0.23901 -0.071628 -0.16222 0.17786 -0.028892 0.48523 0.00010844 -0.30593 0.21735 0.028058 -0.22466 -0.025332 0.071941 -0.24772 -0.097677 0.068415 0.17394 -0.072644 -0.239 -0.067539 -0.38385 0.035479 -0.11903 -0.014393 0.14125 -0.025495 0.25704 -0.18336 0.3197 0.032514 0.21535 0.10431 -0.036142 -0.069355 -0.08717 -0.056874 -0.22809 -0.035993 0.1444 0.10019 0.11908 -0.32569 -0.014398 0.26455 0.086435 -0.08635 0.066087 0.10625 -0.11655 -0.31508 -0.11716 -0.17526 0.074503 -0.012819 0.060796 0.20647 -0.075742 0.031039 -0.22212 0.12935 0.11415 -0.17888 0.10384 0.021351 -0.45405 0.11577 0.070458 0.28512 -0.0059141 -0.13124 -0.077181 -0.0018108 -0.013122 -0.10791 0.19848 0.091851 -0.2394 -0.10433 -0.59014 0.23707 -0.10339 0.12123 -0.27434 0.43005 -0.021978 -0.41965 0.12917 
in 0.040017 0.038552 -0.0031273 0.001943 0.22133 0.012893 0.045607 0.052764 0.15872 -0.095969 -0.27635 0.097932 -0.035275 -0.16991 0.10722 0.012022 0.085327 -0.20861 -0.080316 0.044771 -0.0087556 -0.12375 0.073361 0.027878 0.1452 0.018085 0.24407 -0.11079 -0.14906 0.036921 -0.22336 0.36002 0.01004 -0.28805 -0.18554 -0.22136 0.19143 -0.08236 0.0054075 -0.18184 -0.1139 -0.13506 0.10099 0.07491 0.0063746 0.12365 0.022312 -0.14131 -0.23606 0.057336 -0.024257 0.035751 0.17344 0.22029 -0.049757 -0.15827 0.026736 -0.16078 0.092542 0.20141 -0.086339 -0.018362 -0.084994 -0.14081 -0.069574 -0.030148 0.11961 0.015064 0.051863 -0.032184 0.17411 -0.23655 0.038714 -0.040907 0.16263 0.26276 -0.20201 0.21247 -0.031339 0.20649 -0.11265 0.1287 0.13837 0.013384 -0.035156 0.020349 0.0092849 0.013766 -0.076096 -0.018067 0.021739 -0.084406 -0.035876 0.21557 -0.068904 -0.37612 -0.21915 0.092553 -0.19406 -0.079753 -0.057002 0.035331