871022 300
. 0.18119 0.13836 0.065684 -0.1921 0.021664 0.011064 0.042172 0.20268 0.24896 -0.069305 -0.030421 0.090892 -0.14484 0.082138 -0.067414 0.065555 0.11575 -0.075011 0.072927 -0.0547 -0.092683 -0.079289 -0.06611 -0.027999 -0.041088 -0.022284 0.30336 -0.034389 -0.038824 0.19513 -0.026455 0.0845 -0.031318 -0.11417 -0.039252 -0.083495 0.13822 -0.10079 0.028078 0.0056306 -0.012941 -0.28936 0.040804 0.12963 -0.15143 0.0052775 -0.16359 -0.15405 -0.25907 -0.040242 -0.18784 0.084106 0.0048927 0.037409 -0.0093588 -0.18509 -0.011374 0.0057922 0.095984 0.21862 -0.15652 0.026799 0.042163 0.038891 -0.13303 0.038371 -0.024463 -0.14596 0.0058759 0.076727 0.07 -0.22175 0.13677 0.088154 0.14716 0.19115 -0.15354 0.08131 -0.050195 0.20785 0.10019 0.073443 0.35711 -0.019625 -0.0084498 -0.15768 -0.046387 0.13949 0.12429 -0.048037 0.009666 -0.17332 -0.031141 0.10651 -0.0024993 -0.10569 -0.045052 -0.022756 0.053699 0.063778 -0.059959 0.26613 -0.0070467 0.13475 0.18124 -0.024333 -0.28002 0.12991 -0.23191 -0.014298 -0.11871 0.048445 -0.010923 0.055306 0.073128 -0.048939 -0.080571 -0.20346 -0.066788 0.013991 0.044328 -0.11876 0.075059 -0.31515 -0.081112 -0.13854 -0.18804 0.12694 0.067597 0.043248 0.012177 -0.096264 0.072877 -0.00041768 -0.13404 -0.077194 -0.090527 0.059781 0.12587 -0.038504 -0.13565 -0.12024 0.12588 0.23318 0.26594 -0.15247 -0.0068963 -0.097437 -0.094534 -0.21877 0.075507 -0.038467 -0.066022 0.31866 0.039929 0.14763 -0.001579 0.17358 0.095145 -0.24489 -0.011682 0.020446 0.080186 0.060806 0.021507 -0.037151 -0.058495 -0.12486 0.0090651 -0.0087889 0.04515 -0.037612 -0.072972 0.29198 0.16999 -0.11331 0.08139 0.17388 -0.028248 -0.032581 0.041858 -0.068832 -0.014121 -0.020532 -0.13844 -0.1046 0.049266 -0.16862 -0.1607 0.027428 -0.071299 0.077664 -0.091876 -0.0541 -0.094433 -0.096431 0.019164 -0.06347 -0.35281 -0.29571 0.039935 0.081842 -0.045217 -0.081999 -0.09768 0.095658 0.0049741 -0.15198 -0.13771 0.18794 0.029542 -0.091376 -0.087691 0.037916 0.11709 0.032304 -0.018247 0.045596 0.052862 -0.089216 -0.15756 -0.11877 0.097764 0.18915 0.072878 0.19302 -0.16207 0.10171 0.096401 0.16277 -0.082213 -0.082171 -0.034665 -0.24255 0.29667 -0.30912 0.1048 0.049429 0.043813 0.13062 -0.062679 0.14409 0.065406 0.3196 0.1541 0.041671 0.075566 0.10335 0.12277 -0.20682 -0.26379 -0.063103 0.16584 0.10192 -0.11096 0.12363 0.10795 0.23862 -0.018813 0.14037 -0.064982 -0.029402 0.030489 -0.16691 -0.10354 0.2784 -0.027789 0.10889 0.13835 -0.072017 0.02071 -0.040384 0.20282 -0.18185 0.10958 0.18568 -0.15385 -0.19439 -0.13133 0.13648 0.19683 -0.011708 -0.043573 0.027469 -0.066052 0.082161 0.18354 0.39785 -0.19157 -0.1138 -0.10441 -0.31858 0.024504 -0.20227 0.083449 -0.080116 0.47295 -0.10987 -0.36021 0.010019 
de 0.16479 0.16699 -0.089119 -0.089656 0.14097 -0.12865 0.009929 0.10039 0.11502 -0.0075168 0.12881 0.18425 0.0073509 0.083807 -0.086308 0.21413 -0.089272 -0.18076 -0.031916 0.12998 -0.080908 -0.1322 0.04544 -0.065638 -0.0028528 0.09494 0.14733 0.029539 -0.2241 0.035359 0.10837 0.2174 -0.022818 -0.10779 -0.21026 -0.18601 0.22601 -0.036182 -0.022081 -0.015344 -0.19542 -0.036227 0.025987 0.052363 0.071566 0.010718 0.21795 -0.19041 -0.20726 0.15736 -0.087938 0.003963 0.25132 0.10837 -0.052054 -0.016784 0.14874 0.006859 -0.068647 0.11319 0.017592 -0.061933 -0.091988 -0.076657 -0.20427 0.015897 -0.052347 0.0059456 -0.013176 0.21758 0.32407 -0.23228 -0.045127 0.05098 0.065478 0.16878 -0.10378 0.030475 0.06057 0.10474 -0.15722 0.12152 0.18211 -0.0030135 -0.0010884 -0.042003 -0.025892 0.021325 -0.035526 -0.054808 0.098409 -0.20752 -0.12683 -0.020717 -0.11856 -0.12783 -0.15044 -0.15872 -0.15706 0.11368 -0.095407 0.12026 -0.16672 0.0098017 0.1957 -0.051367 -0.22575 0.17865 -0.30336 0.086464 -0.261 0.14522 0.016269 0.090111 0.11776 0.07852 -0.1036 -0.098167 0.084405 0.042303 0.15911 -0.093426 -0.054191 -0.33069 -0.055454 0.084396 -0.14259 0.17483 0.22463 0.056974 0.11459 0.12761 0.15675 0.032407 -0.12602 -0.071737 0.14259 0.052523 0.085627 0.045669 -0.085302 -0.081556 0.030805 0.3741 0.040483 -0.0071056 0.071506 -0.059159 -0.28653 -0.17236 -0.012852 -0.02865 0.052201 0.23871 -0.3987 0.069021 -0.067662 0.32841 0.10185 -0.26103 0.099693 0.085577 0.081413 -0.08123 -0.097919 -0.2266 -0.15342 0.057401 0.045805 0.13495 -0.039199 0.01715 -0.13253 0.31345 0.018448 -0.29258 0.035427 0.046098 0.10989 0.077891 -0.14308 -0.12223 -0.058379 0.046169 -0.069129 -0.17815 0.0012364 -0.038347 -0.2288 -0.049089 -0.052992 0.0478 0.095936 -0.25075 0.10579 0.1743 -0.17924 0.02433 -0.2041 -0.26502 0.15731 0.080108 -0.041375 -0.043732 -0.060024 0.14162 0.096005 -0.020181 -0.22214 0.077446 0.053568 0.0061934 -0.028307 -0.10664 0.066884 0.0070772 -0.080356 0.020185 0.14905 -0.10337 -0.12421 0.066973 0.10726 -0.012007 0.17656 0.3517 -0.22111 -0.003677 0.2099 0.078413 -0.25108 0.047318 0.040642 0.044647 0.31084 -0.1947 -0.0032355 0.06699 0.0028481 -0.014556 -0.036416 0.0036471 -0.02787 0.13944 -0.0028167 -0.14034 0.0080102 0.1191 0.060105 -0.17397 -0.094639 -0.19546 0.05285 0.10302 -0.073336 0.34764 -0.096314 0.23806 0.0018105 0.045708 0.11447 -0.11851 0.012248 -0.11543 -0.19331 0.091575 0.13497 0.020934 0.22576 -0.051139 -0.16701 -0.079926 0.12819 -0.038142 -0.033439 0.039275 -0.061028 -0.12143 -0.27587 0.054158 0.15445 -0.043124 0.071628 0.16278 -0.08896 0.20183 0.052435 0.218 -0.16445 -0.18419 -0.11213 -0.35877 0.099071 -0.23073 -0.007666 -0.045224 0.32255 -0.032341 -0.21062 -0.035999 
</s> 0.24811 -0.090752 0.18569 0.02823 0.44277 0.13026 0.28663 0.19347 0.61118 0.30051 -0.2426 0.11804 0.046251 -0.49733 0.29397 -0.14827 -0.12775 -0.066934 -0.25319 0.12536 0.018678 -0.35132 0.055992 0.10387 0.0036474 -0.30552 0.09612 0.087923 -0.24628 0.033663 0.26205 0.51635 -0.073523 0.21982 -0.1337 -0.1109 0.21952 -0.50596 0.0020593 0.084739 0.11377 -0.069406 0.20274 0.13228 0.5034 -0.056722 -0.45668 -0.073184 -0.14599 0.0080944 0.45417 0.20476 0.067191 -0.29091 0.15574 0.096811 -0.31357 -0.13068 -0.10014 0.29204 -0.45664 -0.24246 -0.016413 -0.17462 -0.12384 -0.26672 0.13884 -0.14059 0.16623 -0.088277 0.34198 0.060285 0.20962 -0.21534 0.06339 -0.11786 -0.017777 -0.20885 0.094523 0.26865 0.013938 0.031299 -0.090676 -0.3866 0.15429 -0.23936 -0.26205 -0.109 -0.35425 0.050227 -0.17008 -0.055142 -0.035233 0.29303 0.61972 0.23072 -0.59969 -0.21628 -0.077362 -0.018714 0.20428 0.35645 -0.32965 0.044561 0.23108 0.12795 -0.25309 0.20541 -0.38302 -0.033108 -0.22766 0.24047 0.076849 0.13544 0.037015 -0.0034149 0.13369 0.088739 0.22924 -0.011892 -0.078702 0.021297 -0.01013 -0.1279 0.070331 -0.097165 0.27126 -0.37572 -0.21779 0.48187 0.19665 -0.18092 0.077925 0.034594 -0.081739 0.20914 0.11747 -0.12492 0.1077 0.28945 -0.25619 0.14787 0.58331 0.79318 0.61997 0.12517 -0.42947 -0.26983 0.12584 0.21932 -0.069348 -0.21414 -0.12593 0.0058815 0.11617 0.30257 -0.31327 0.43688 0.00099253 -0.094356 0.12539 -0.14368 0.21005 0.05332 -0.072891 0.023526 0.0033351 0.096734 0.070566 0.037153 -0.031191 0.022469 -0.33597 0.15895 0.26136 -0.51162 0.10638 0.11138 0.042208 -0.25821 0.12674 0.070579 0.11396 -0.034862 0.15065 -0.12512 0.14525 -0.21729 -0.20332 -0.11672 -0.047041 -0.097122 0.021882 0.25552 -0.12894 0.026254 0.040047 -0.27941 -0.027569 0.13087 0.37435 -0.45623 0.00025372 0.26065 0.18514 0.1957 0.061706 -0.051585 0.40118 -0.46454 0.093644 -0.54137 -0.16675 -0.020778 0.0092288 0.048282 0.21153 -0.15781 0.12397 0.012779 -0.046754 -0.13101 0.26164 0.26634 -0.060081 -0.16592 -0.04359 0.32655 0.20203 -0.16949 -0.01443 -0.10769 0.26793 -0.31096 0.12034 -0.26737 -0.20081 0.25527 0.28841 -0.22708 0.19318 0.2168 -0.24217 0.14095 0.024789 -0.25762 -0.37089 -0.13262 -0.33816 -0.3471 -0.37359 -0.16314 0.31087 0.097915 -0.14228 0.13297 -0.01788 -0.11835 -0.32749 -0.052392 -0.27949 0.083116 -0.31237 -0.4056 0.35786 0.46915 0.15507 0.141 0.11071 -0.039385 -0.069078 0.098676 0.15943 -0.016427 -0.075094 0.18411 -0.038957 -0.061714 -0.05898 -0.11608 0.44084 -0.37409 0.020891 -0.033548 0.072814 -0.03154 -0.0032874 0.078694 0.06558 0.010676 -0.2107 -0.01769 -0.012737 -0.37455 0.18008 -0.13012 0.24451 -0.36412 0.28345 -0.070393 
, 0.20751 0.23611 0.14504 -0.056323 0.028052 0.1038 0.13747 0.079049 0.1481 -0.065428 -0.21653 0.172 -0.0050776 -0.11562 0.057774 0.063049 -0.01463 -0.0068068 0.024048 0.071244 -0.064214 -0.21845 -0.014291 0.025154 0.024621 -0.12366 0.24432 -0.060051 0.087154 0.14091 -0.097854 0.19565 -0.080104 -0.20445 -0.074281 -0.040498 0.14148 -0.19348 0.040995 -0.06358 0.012017 0.0152 0.10119 -0.03552 0.043325 -0.0057313 -0.14942 -0.033268 -0.059536 -0.18142 0.040927 0.029765 0.1563 -0.017654 -0.20951 -0.050669 0.13058 -0.016512 -0.016382 -0.059698 -0.16672 -0.070618 -0.037778 -0.02015 0.045833 -0.074177 0.22171 -0.1333 0.055286 -0.02094 0.24062 -0.26603 0.097813 -0.10465 0.012389 0.16373 -0.023176 0.0051831 -0.076151 0.0585 -0.063139 -0.0032585 0.13637 0.12556 -0.072862 -0.086536 0.031196 0.080386 -0.016496 0.030622 -0.022127 -0.17019 0.092512 -0.068961 -0.14849 -0.17374 0.017683 -0.069982 0.037637 -0.089964 -0.21066 0.29797 -0.21999 -0.26486 -0.081594 -0.059382 -0.1491 0.22664 -0.23159 -0.029375 -0.13585 -0.043239 -0.11542 -0.0063794 -0.047499 0.027906 -0.12099 -0.18175 -0.085652 -0.017466 0.068012 -0.11522 0.11538 -0.17085 -0.12575 -0.083128 -0.20195 -0.085618 -0.0034759 -0.14006 0.10996 -0.15644 0.065868 -0.15626 -0.092297 -0.15154 -0.072615 0.15211 0.1363 -0.016229 0.025438 0.095363 -0.027094 0.14185 0.046594 -0.12506 -0.060352 0.064317 -0.21714 -0.31147 0.042798 -0.046678 0.0072863 0.20678 -0.10363 -0.044239 0.092594 0.28938 -0.029097 0.018101 -0.11009 -0.12735 -0.21681 0.11706 0.3927 0.038156 -0.12902 -0.098893 -0.068508 0.038132 0.14561 0.044879 0.2033 0.19768 -0.042145 -0.275 -0.0023051 0.15062 0.065748 -0.065548 0.10906 -0.083951 0.14193 -0.11163 0.16875 0.15558 -0.067251 -0.38169 -0.017888 -0.050854 -0.03477 0.11248 0.0097104 0.04222 -0.15654 0.057137 0.14913 0.21812 -0.26969 -0.26882 -0.070642 0.1872 -0.10871 -0.24476 -0.061356 0.19422 0.1602 -0.038788 -0.18557 0.21323 0.20088 -0.18971 -0.089764 -0.12611 0.02523 0.11797 -0.11735 0.069942 0.18388 -0.16075 -0.061895 0.0013165 0.22512 0.14736 -0.06711 0.12971 -0.16633 -0.034205 -0.0010295 0.077506 -0.07479 -0.055055 -0.1003 -0.34743 0.18238 -0.20735 0.011541 -0.076413 -0.10839 0.0088164 -0.071773 0.14387 -0.025725 0.20935 -0.032307 -0.037617 0.033573 0.063076 0.047927 -0.019485 -0.32165 0.057027 0.21873 0.11394 -0.058408 0.16374 0.0046785 0.13867 -0.15712 0.10532 0.044332 -0.099175 -0.1182 -0.010482 0.040987 0.12624 0.054358 0.14313 0.17135 -0.07728 -0.032796 -0.048912 0.047239 0.069494 0.15839 0.042559 0.093336 -0.19659 -0.11843 0.097323 0.1175 -0.13526 -0.10736 -0.0016986 0.019802 -0.0059349 0.2127 0.1396 -0.11749 -0.091478 -0.28152 -0.40888 0.15057 -0.064021 0.092846 0.021007 0.31555 0.071338 -0.11942 0.2009 
van 0.18385 0.072616 0.02553 -0.12092 0.18606 -0.088734 0.036084 0.19363 0.06877 -0.055138 0.012029 0.16576 -0.084989 0.027358 0.05565 0.16095 0.0081793 -0.21832 -0.036776 -0.0046063 -0.10503 -0.010398 -0.01488 -0.15189 0.14014 0.15167 0.19287 0.1053 -0.14136 0.11296 0.16184 0.33344 -0.073448 0.1034 0.026696 -0.19434 0.30937 -0.091159 -0.17959 -0.14731 -0.17546 -0.080852 -0.12872 -0.035513 0.032691 0.0067621 0.20471 -0.30568 -0.12282 0.16694 -0.073098 -0.10158 0.14451 0.19979 -0.076101 -0.03261 0.010347 0.02303 0.045811 0.18045 0.087995 -0.051727 -0.17224 -0.046009 -0.14785 -0.024755 -0.042194 0.30081 0.09508 0.21238 0.1755 -0.32797 0.060275 0.1092 0.11614 0.17981 -0.1177 0.0031572 0.087826 0.023499 -0.0092005 0.14765 -0.00010811 0.012523 -0.052173 -0.078721 0.056237 0.032146 -0.018885 -0.16648 -0.01099 -0.1695 -0.11114 -0.057837 -0.25384 -0.12097 -0.16375 -0.10276 -0.079418 0.039115 0.14674 0.177 -0.27793 0.061411 0.049493 -0.023848 -0.20163 0.17748 -0.053736 0.0027434 -0.067648 0.028773 -0.029471 -0.26143 0.041572 -0.0018741 -0.15774 -0.18786 -0.040986 0.10272 0.12887 -0.11022 0.034448 -0.29588 -0.077111 0.028508 -0.1003 0.02971 0.1464 0.051882 0.064741 0.031052 0.23396 -0.010608 -0.095594 0.010756 0.0076756 0.038933 0.048959 0.074108 0.04159 -0.056423 0.12273 0.15476 0.091356 0.026801 -0.077528 -0.25846 -0.29052 -0.15852 -0.06176 -0.16588 0.004128 0.15104 -0.34533 0.061498 -0.044947 0.25186 0.22355 -0.28103 0.074023 0.094501 -0.030699 -0.0027985 0.068643 -0.15465 -0.11151 -0.053439 -0.0074428 0.077196 0.05079 0.27035 -0.11068 0.29538 0.060882 -0.19423 0.15368 0.0086801 0.23997 -0.066321 0.10375 -0.36261 -0.0619 -0.074545 -0.20986 -0.019796 -0.070173 0.042032 -0.11226 0.025065 -0.14093 0.03751 0.13208 0.010935 0.13725 -0.062441 -0.26893 -0.055689 -0.34082 -0.2786 0.068988 0.080263 -0.12693 0.03364 -0.014328 0.15686 0.022361 0.013813 -0.13626 0.13937 0.089473 0.11269 -0.095947 -0.10882 0.047465 -0.091905 -0.042621 -0.025438 0.25772 -0.13229 -0.07279 0.23614 -0.020192 0.056773 0.19672 0.30356 -0.18308 -0.09069 0.15988 0.095668 -0.21523 -0.1037 -0.19142 0.16776 0.36475 -0.1453 0.069148 -0.095116 0.032413 -0.1724 -0.15862 0.14191 0.041014 0.12605 0.1157 -0.10997 0.13418 0.17642 0.081471 0.008438 -0.12758 -0.087571 0.16844 0.18803 -0.15333 0.21872 0.024656 0.20454 -0.0045943 0.22756 -0.036702 -0.2129 0.10676 -0.065199 -0.12395 -0.0017301 0.052066 0.18164 0.18026 -0.17376 -0.10328 -0.054912 0.10839 0.09256 0.016516 0.15866 -0.20545 -0.014459 -0.10626 0.20906 0.15333 -0.10233 0.092207 0.043623 -0.028191 0.2022 0.0046437 0.31566 0.035496 -0.24173 -0.019744 -0.39329 0.18068 -0.07569 -0.031127 -0.25345 0.29597 -0.16097 -0.17746 0.011293 
- 0.17385 0.24687 0.37713 0.080073 0.30527 0.045059 0.27092 0.13811 0.16819 0.28311 -0.28891 -0.017404 0.077274 -0.19537 0.19321 0.18229 0.025827 0.10653 -0.10173 0.10218 -0.083811 -0.23879 -0.012001 -0.11376 -0.10085 -0.21291 0.21307 0.12099 -0.099064 -0.021765 0.16181 0.064174 0.001583 -0.31155 -0.034952 -0.14715 0.035978 -0.10953 0.16317 -0.057666 0.030901 -0.1986 0.14948 0.12645 -0.27106 0.082459 -0.027829 -0.26548 -0.15829 0.068031 -0.3781 0.22577 0.20718 -0.11673 0.0093989 0.0085979 -0.15703 -0.15256 0.22973 -0.30821 -0.19161 -0.043076 -0.29355 0.01158 0.15325 -0.39555 0.20582 0.28479 0.15614 0.024529 0.32 -0.020476 -0.05788 0.064424 -0.094741 0.14676 -0.16401 0.071009 -0.033014 0.0027082 0.34024 -0.11239 0.060629 -0.012669 0.17398 -0.23761 -0.00048513 -0.043202 0.13081 0.034126 -0.14876 0.10514 0.044232 0.0090225 -0.09715 0.20114 -0.19768 -0.15336 -0.18152 0.09767 0.10212 0.54379 0.16223 -0.048598 -0.034481 0.055266 -0.25416 0.12219 -0.28075 -0.23956 -0.06685 0.12096 -0.36954 0.025063 -0.06879 0.16506 -0.20872 0.071501 0.095981 -0.15215 -0.018171 -0.026553 0.030187 -0.12548 0.32061 -0.26312 0.37187 -0.11087 0.29095 -0.052855 0.027928 -0.19896 0.13852 -0.23114 -0.16684 -0.10416 -0.090714 0.098236 0.016901 -0.14512 -0.1101 0.18814 0.20083 0.33344 0.19879 -0.077594 -0.15183 0.16046 0.056076 -0.095047 -0.11915 -0.031772 -0.083811 -0.025835 -0.020191 0.23303 0.39262 0.11499 0.10257 -0.18035 -0.086523 -0.18704 -0.13731 0.047859 0.0066219 0.012411 -0.15616 -0.03843 -0.026902 -0.11052 0.29323 0.21787 0.34687 0.26098 0.17303 -0.11224 0.050562 0.0027543 -0.083885 0.15002 0.20593 -0.11557 0.093685 0.10215 0.24163 0.2393 -0.3179 -0.4495 0.37377 0.14236 -0.19199 -0.15453 0.18716 0.29076 -0.11081 -0.19672 -0.098606 -0.08238 -0.11762 -0.26044 0.042075 -0.10175 -0.08002 0.10727 0.048437 0.05225 -0.10092 0.24243 0.025084 0.026704 0.061948 0.031487 -0.044976 -0.23901 -0.071628 -0.16222 0.17786 -0.028892 0.48523 0.00010844 -0.30593 0.21735 0.028058 -0.22466 -0.025332 0.071941 -0.24772 -0.097677 0.068415 0.17394 -0.072644 -0.239 -0.067539 -0.38385 0.035479 -0.11903 -0.014393 0.14125 -0.025495 0.25704 -0.18336 0.3197 0.032514 0.21535 0.10431 -0.036142 -0.069355 -0.08717 -0.056874 -0.22809 -0.035993 0.1444 0.10019 0.11908 -0.32569 -0.014398 0.26455 0.086435 -0.08635 0.066087 0.10625 -0.11655 -0.31508 -0.11716 -0.17526 0.074503 -0.012819 0.060796 0.20647 -0.075742 0.031039 -0.22212 0.12935 0.11415 -0.17888 0.10384 0.021351 -0.45405 0.11577 0.070458 0.28512 -0.0059141 -0.13124 -0.077181 -0.0018108 -0.013122 -0.10791 0.19848 0.091851 -0.2394 -0.10433 -0.59014 0.23707 -0.10339 0.12123 -0.27434 0.43005 -0.021978 -0.41965 0.12917 
in 0.040017 0.038552 -0.0031273 0.001943 0.22133 0.012893 0.045607 0.052764 0.15872 -0.095969 -0.27635 0.097932 -0.035275 -0.16991 0.10722 0.012022 0.085327 -0.20861 -0.080316 0.044771 -0.0087556 -0.12375 0.073361 0.027878 0.1452 0.018085 0.24407 -0.11079 -0.14906 0.036921 -0.22336 0.36002 0.01004 -0.28805 -0.18554 -0.22136 0.19143 -0.08236 0.0054075 -0.18184 -0.1139 -0.13506 0.10099 0.07491 0.0063746 0.12365 0.022312 -0.14131 -0.23606 0.057336 -0.024257 0.035751 0.17344 0.22029 -0.049757 -0.15827 0.026736 -0.16078 0.092542 0.20141 -0.086339 -0.018362 -0.084994 -0.14081 -0.069574 -0.030148 0.11961 0.015064 0.051863 -0.032184 0.17411 -0.23655 0.038714 -0.040907 0.16263 0.26276 -0.20201 0.21247 -0.031339 0.20649 -0.11265 0.1287 0.13837 0.013384 -0.035156 0.020349 0.0092849 0.013766 -0.076096 -0.018067 0.021739 -0.084406 -0.035876 0.21557 -0.068904 -0.37612 -0.21915 0.092553 -0.19406 -0.079753 -0.057002 0.035331 -0.016099 0.36407 0.28306 -0.061358 -0.13643 0.23211 -0.12707 0.14281 -0.1403 0.053216 -0.065683 0.1878 0.1076 -0.022793 -0.059367 -0.075419 0.16912 -0.082513 0.048952 -0.22775 -0.21061 -0.29752 0.056564 -0.059873 -0.046918 0.23096 0.088178 -0.036472 -0.013368 -0.0067186 0.14761 0.011756 0.0064063 -0.024108 -0.073824 -0.012194 0.19746 0.075912 -0.27614 -0.091824 -0.096897 0.27057 0.2796 -0.13126 0.10352 0.0083779 -0.08049 -0.11629 0.02509 0.046585 -0.079663 0.36307 -0.28261 -0.10254 0.069728 0.34516 0.028722 -0.13 0.042162 -0.0052989 -0.058149 -0.10546 -0.12849 0.097078 -0.015206 -0.2828 0.0011766 0.06865 -0.11895 0.11063 -0.13416 0.24433 0.1496 -0.028999 0.16656 0.089375 -0.025372 0.036403 -0.057717 0.031852 0.038769 -0.15017 -0.05238 -0.0018995 -0.056785 -0.37399 -0.15664 0.094883 -0.03889 -0.044809 0.043297 0.016964 0.16787 0.12538 -0.01424 -0.26365 0.047562 -0.2507 0.075143 0.26941 0.049836 -0.075122 -0.13145 0.22906 0.080194 -0.087132 -0.26059 0.10239 0.099752 0.002557 -0.17388 -0.1159 0.12221 0.15548 0.142 0.019173 0.24185 -0.11869 -0.03609 -0.001037 0.11212 0.045955 0.05514 0.25259 -0.268 0.065269 0.10393 0.14345 -0.082319 0.15823 -0.028716 -0.13173 0.1954 -0.047642 0.17357 0.064462 -0.24558 0.079891 -0.072612 0.075712 0.0044672 0.34979 0.10689 -0.13582 -0.087297 0.077735 0.12357 -0.26892 -0.1604 -0.16009 0.15962 0.2171 -0.039107 0.20674 -0.042607 0.33017 -0.065307 0.025404 0.00809 -0.16004 0.091343 -0.13282 -0.19147 0.1197 0.068865 -0.071128 0.1588 -0.13879 -0.051641 -0.17858 0.18378 -0.036457 0.029057 0.14983 -0.10304 -0.035887 -0.1713 -0.041562 0.21959 0.12793 0.21006 0.11349 -0.1084 0.14719 0.053095 0.20419 0.12751 -0.00032039 0.067264 -0.27556 0.18833 -0.17731 0.071597 0.077875 0.42503 0.07321 -0.31307 0.0014086 
het 0.22114 0.0097819 -0.13976 -0.10172 0.28997 -0.036544 0.08512 0.22726 0.2845 -0.012854 -0.23007 0.088516 0.020055 -0.2465 0.26638 -0.022967 0.39377 -0.10998 -0.016198 -0.086095 -0.082761 -0.13017 0.022661 -0.025848 0.12274 -0.038852 0.03159 -0.013878 0.12851 -0.069646 -0.08609 0.53397 0.089002 -0.081401 -0.037749 -0.12924 0.29764 -0.12306 -0.058639 -0.15513 -0.007594 -0.17217 0.018571 0.03209 -0.046404 0.066005 -0.058674 -0.2077 -0.10174 0.062651 -0.13218 -0.11082 0.077926 0.28595 -0.094804 -0.13349 -0.089718 0.078716 -0.11421 0.27317 0.030262 0.075949 -0.21974 -0.029981 -0.058777 -0.010442 0.081037 0.058949 0.094136 -0.076866 0.24563 -0.27355 0.17478 0.069099 0.13632 0.12788 -0.13371 0.11785 0.064564 0.25325 0.050364 -0.0048045 0.20863 0.015697 0.095219 -0.086918 -0.22656 -0.025568 0.016158 0.17885 0.079357 -0.072535 -0.03243 0.10569 -0.081026 -0.22967 -0.066212 0.049943 -0.12864 -0.15394 -0.10033 0.10855 -0.11672 0.10454 0.022554 -0.13404 -0.3728 0.10243 0.17811 0.15635 0.0060874 0.081613 0.0029399 -0.050015 0.089101 -0.044404 0.048594 -0.39519 0.23978 0.053932 0.10871 -0.009685 -0.066466 -0.30017 -0.033398 -0.10782 -0.013164 0.22299 0.013393 -0.092935 -0.07377 0.082294 0.0018663 -0.083584 -0.061409 -0.07273 -0.080559 0.15711 0.10699 -0.13098 -0.1137 -0.12517 -0.021637 0.06313 0.34929 -0.12085 -0.25657 -0.20402 -0.22431 0.0035198 0.024374 0.033923 -0.19168 0.33694 -0.16366 -0.080197 -0.081476 0.12396 0.070022 -0.16272 0.21823 0.083546 0.018136 0.021739 -0.034233 0.19444 -0.22755 -0.25298 0.074703 0.095653 0.046159 0.39666 -0.14863 0.35727 0.23968 -0.042959 -0.0079287 -0.014938 -0.10405 -0.24386 -0.10274 0.095685 0.17871 -0.38319 -0.31956 0.096299 -0.098179 0.0841 0.023765 0.090106 -0.24618 -0.013289 0.25889 -0.018477 0.26039 -0.032155 -0.028196 -0.22398 -0.22336 -0.25727 0.047574 0.14668 -0.079276 -0.20829 -0.1174 0.28821 -0.068639 -0.0085407 -0.063108 -0.090621 0.037043 -0.21257 -0.084963 -0.08108 0.11632 0.12071 -0.063846 0.075651 0.24458 -0.19366 -0.028271 -0.0063291 0.077991 -0.10927 0.0051288 0.24123 -0.10706 -0.070743 0.17953 0.090925 -0.27367 -0.076984 -0.081238 0.20476 0.2793 -0.058812 0.23671 0.13358 0.14464 -0.015077 0.053017 0.17192 -0.085511 0.12563 0.11741 0.10369 -0.038478 0.21586 0.10056 -0.31868 -0.29348 -0.15983 0.18369 0.061253 -0.0017044 0.020329 -0.078439 0.27922 0.01059 0.050869 -0.070081 -0.20737 -0.0033552 -0.036376 -0.11038 -0.015391 0.137 -0.092397 0.10681 -0.056365 -0.32655 -0.027051 0.206 -0.061217 0.019364 0.20742 -0.12017 -0.085809 -0.23569 0.099583 0.26648 0.088694 0.089857 0.21063 0.11451 0.17333 0.013454 0.10462 0.13313 -0.34225 0.099373 -0.21604 -0.029292 0.052082 0.01395 -0.061525 0.50612 -0.082265 -0.40925 -0.096061 
een 0.33166 0.21371 -0.12723 0.044892 0.11872 0.042299 0.14491 0.039074 0.13108 -0.1405 -0.19616 0.034599 -0.016881 0.028895 0.074609 0.043429 0.08906 -0.25062 -0.13355 0.24477 -0.11717 0.027753 -0.03549 -0.0097278 -0.074444 -0.29028 0.071674 -0.091658 -0.18447 -0.20867 -0.10798 0.34607 0.061348 -0.016809 -0.021332 0.022493 0.28024 0.070589 0.1226 -0.24618 -0.36218 -0.071502 -0.04475 -0.076112 0.2626 -0.15176 0.059566 -0.21089 -0.046866 0.21019 -0.20002 -0.16389 0.14289 0.34666 -0.023787 -0.13528 0.045122 0.010216 -0.071948 0.21125 0.013824 0.0288 0.032766 -0.10264 -0.11466 -0.019629 -0.029771 0.025449 -0.083315 0.27748 0.063321 -0.17332 0.14065 0.18321 0.099789 0.11848 0.022691 0.20234 0.015856 0.30288 -0.01687 -0.030498 0.25708 -0.048733 0.23164 -0.0041783 0.16749 -0.062768 -0.067751 0.032167 0.1228 -0.15564 0.23399 0.031935 -0.10633 -0.22171 -0.12895 -0.073978 -0.28612 0.092001 0.010098 0.14954 -0.24317 -0.0017747 -0.27674 -0.14936 -0.22361 0.065583 0.04918 0.073416 0.032904 0.083098 0.035002 0.065869 -0.029065 -0.0045948 -0.14788 -0.31353 -0.016523 0.15088 0.34038 -0.01283 -0.0080435 -0.20248 -0.13678 0.05749 -0.065163 -0.030136 0.30903 0.16738 0.072783 0.022786 0.30655 0.1139 -0.083905 -0.056403 0.16944 0.020853 0.19671 -0.077043 -0.19729 -0.13067 0.002947 0.060681 0.098576 0.032183 -0.12825 0.07008 -0.27861 -0.032311 -0.035036 0.045319 -0.2635 0.093106 -0.23751 0.078384 0.0069134 0.35105 0.21014 -0.19996 -0.11517 0.019955 -0.16195 0.038255 -0.018849 -0.066495 -0.10512 0.12772 0.056417 -0.032448 0.21897 -0.03499 -0.1562 0.15195 -0.088126 -0.25409 -0.01732 0.20812 -0.080279 0.094233 -0.035025 -0.1625 0.0066394 0.011201 -0.17345 -0.047114 0.074255 -0.14054 -0.11028 0.033097 0.054368 0.018846 0.0586 -0.15487 -0.050249 0.12512 -0.23327 0.011336 -0.25862 -0.25917 0.092556 0.039632 -0.11726 -0.27497 -0.12327 0.16859 -0.014853 -0.081248 -0.0068846 0.17003 0.040678 -0.078557 -0.0020082 -0.12957 0.1788 0.06028 0.021227 0.035086 0.20366 -0.18691 0.097136 -0.048034 0.19958 -0.13684 0.20093 0.21144 -0.017767 0.042889 0.29661 0.1042 -0.10532 0.13062 -0.069029 0.15131 0.21658 -0.33077 0.094434 -0.048621 -0.11735 -0.12506 -0.18303 0.2878 -0.22525 -0.20386 -0.10342 -0.1199 -0.016646 -0.027151 0.044236 -0.1447 -0.17987 -0.055585 -0.1915 0.29216 -0.04908 0.11464 -0.16861 0.1849 -0.24967 0.12278 0.36519 -0.23998 -0.028785 0.027558 0.030407 0.092519 0.015054 -0.0025553 0.21517 0.1231 0.075927 0.038847 0.15125 0.064956 0.018265 0.18054 0.055353 -0.016031 -0.045571 -0.10667 0.22106 -0.035744 -0.063094 0.11192 0.056704 0.20811 0.11563 -0.10068 -0.072225 -0.042015 -0.06146 -0.23896 0.14469 0.019822 -0.19068 0.07442 0.33682 -0.074049 -0.3227 -0.028885 
) -0.0020351 0.056668 0.13694 -0.075304 0.06483 -0.19249 0.015572 0.052987 0.014791 0.28539 0.09695 0.064462 0.0078872 0.010154 0.024419 -0.096723 0.090913 0.044889 -0.11228 0.0013065 0.0043187 0.1744 0.094285 -0.035566 0.072938 -0.17862 0.20418 0.021965 -0.014259 -0.013848 -0.19498 0.22749 -0.015011 -0.16695 0.024021 -0.018993 0.26839 -0.063644 -0.029562 -0.035094 0.0046734 -0.14637 -0.063229 0.038261 -0.077335 0.24185 0.047498 -0.22483 -0.083089 -0.010364 -0.18544 0.063646 0.19834 -0.069956 -0.11103 0.00051509 0.14146 0.015933 0.13331 -0.045432 -0.13855 0.023817 0.10187 -0.029004 0.080447 -0.057527 0.29712 -0.058376 0.19744 -0.07859 0.076482 -0.019603 0.084247 0.17093 -0.12248 0.20743 -0.095702 0.12234 -0.055599 0.10087 0.16588 0.034787 0.16357 0.12179 0.24783 -0.16312 -0.068954 0.0050497 0.062884 -0.16266 -0.17108 -0.083484 0.066222 0.13765 -0.11919 0.028561 -0.1627 -0.1656 0.036626 -0.05043 -0.010688 0.33046 0.010063 0.0058998 -0.058624 0.053668 -0.40012 0.34477 -0.10303 -0.15993 -0.056529 0.069695 0.11618 -0.023151 -0.23451 -0.023542 -0.20554 -0.19339 -0.26892 -0.16182 0.31812 -0.047873 0.050722 -0.12536 -0.11156 -0.11712 0.065792 0.096775 0.14546 0.023062 -0.046431 -0.17819 0.097984 0.039318 -0.25478 -0.049909 -0.22231 0.041408 0.050913 -0.11334 -0.15626 -0.19574 0.098179 0.058336 0.22995 -0.069728 -0.0098589 0.10931 -0.11212 -0.32939 -0.02282 -0.18956 0.088213 0.50819 0.060943 -0.017208 -0.25117 0.21026 0.072655 -0.23731 -0.057341 0.15986 -0.18117 0.19615 0.19825 -0.14334 -0.21881 -0.12002 -0.13032 0.041017 0.27753 0.031316 0.16705 0.42684 0.10953 -0.45461 0.21389 0.17743 -0.012954 0.04117 0.10077 -0.27517 0.10565 0.070403 0.015216 -0.031703 0.051736 -0.15135 -0.037232 -0.11252 -0.23973 0.089692 0.068627 0.060114 -0.22741 0.12017 -0.020793 0.014583 -0.58418 -0.14811 -0.026313 0.21316 -0.10012 -0.19006 -0.0022369 0.055682 0.17309 0.1307 -0.16436 0.032497 0.32665 -0.022469 -0.16095 -0.089444 0.0020118 -0.12065 -0.032128 -0.0199 0.27783 0.12696 -0.12871 -0.1124 0.17061 0.098539 0.032726 -0.030725 0.034268 0.038188 0.059612 0.1179 -0.028672 -0.054152 -0.04352 -0.32289 0.29685 -0.26698 0.061821 0.06124 -0.14813 0.064002 0.013969 0.11795 -0.043698 0.10313 -0.16311 -0.25065 0.11622 -0.14946 0.29896 -0.34702 -0.13175 0.019939 0.02476 0.18009 0.047942 0.11216 0.11132 0.48271 -0.0020042 0.31873 0.2069 -0.14739 -0.071219 -0.26935 -0.072327 0.27454 -0.11067 0.11229 0.15219 -0.25288 0.26329 -0.083636 0.14462 0.11674 -0.12669 0.19255 0.15565 -0.41516 -0.094955 0.04441 0.14793 0.011137 -0.27023 -0.10641 0.14122 0.020161 0.12074 0.1589 0.04242 -0.17208 -0.11914 -0.41544 0.1072 -0.14444 0.26602 -0.21554 0.44532 -0.043469 0.0231 0.35447 
( -0.016921 0.054409 0.1245 -0.016521 0.073198 -0.1638 0.0086694 0.055046 0.031198 0.28491 0.13515 0.070629 0.037724 0.0068085 0.040056 -0.042513 0.023844 -0.0080051 -0.13475 0.033055 -0.0024675 0.17372 0.084095 -0.06075 0.055108 -0.19348 0.21278 0.0028007 -0.05436 -0.029158 -0.14416 0.25813 -0.025588 -0.17925 0.0058068 0.024695 0.25086 -0.068987 -0.043247 -0.055925 -0.033289 -0.11034 -0.070836 0.058338 -0.06234 0.22696 0.0879 -0.25175 -0.063839 0.0069274 -0.18476 0.061958 0.19134 -0.075886 -0.076218 0.0021169 0.21163 0.023404 0.14636 -0.057753 -0.20391 0.018532 0.13531 -0.068399 0.049927 -0.11705 0.28828 -0.025758 0.20527 -0.071494 0.088911 -0.0059388 0.046595 0.1082 -0.11941 0.23025 -0.082259 0.099964 -0.062183 0.10917 0.1825 0.01963 0.18492 0.15156 0.26493 -0.1709 -0.056499 0.0027925 0.040702 -0.15933 -0.16007 -0.019205 0.045523 0.095074 -0.10987 0.098839 -0.17516 -0.17679 0.0060225 0.044197 0.0041799 0.29884 -0.036684 -0.028264 -0.1059 0.036662 -0.37786 0.33123 -0.063476 -0.17888 -0.022712 0.049373 0.10457 -0.030246 -0.23068 0.0048303 -0.27127 -0.23413 -0.2775 -0.074478 0.36198 -0.013012 0.032575 -0.087573 -0.074889 -0.11307 0.052112 0.10715 0.17331 0.063037 -0.073068 -0.17209 0.098919 0.031614 -0.26 -0.0086413 -0.20942 0.035867 0.019396 -0.12747 -0.13007 -0.19556 0.13744 0.065259 0.21823 -0.10591 0.026971 0.084214 -0.097219 -0.30024 -0.094289 -0.21864 0.08519 0.51456 0.023441 0.0056567 -0.25299 0.1964 0.13502 -0.23687 -0.092404 0.17234 -0.19053 0.15713 0.19564 -0.1524 -0.21418 -0.084413 -0.12918 0.011879 0.32359 0.041004 0.1861 0.45581 0.053442 -0.4576 0.21792 0.18388 0.051349 0.013427 0.12757 -0.27789 0.13331 0.055332 0.025211 0.028616 0.014232 -0.15115 -0.0010796 -0.10261 -0.25645 0.10285 0.042247 0.030017 -0.16032 0.14066 0.014024 0.038451 -0.57878 -0.12452 -0.067233 0.25811 -0.10967 -0.21439 0.015365 0.00563 0.13375 0.15191 -0.18706 0.036102 0.35991 0.0029526 -0.1778 -0.11811 0.043021 -0.14529 -0.011078 -0.040688 0.28447 0.12327 -0.10313 -0.10918 0.14375 0.051826 -0.0076142 -0.009038 0.092151 -0.0065311 0.069865 0.090123 0.0013825 -0.018998 -0.033474 -0.25448 0.25869 -0.25723 0.050571 0.058563 -0.16357 0.04895 0.0041085 0.15944 -0.022019 0.11892 -0.1536 -0.21887 0.11029 -0.11158 0.24509 -0.31772 -0.14022 0.047049 0.032174 0.15291 0.024254 0.12459 0.080569 0.45447 -0.0028253 0.30005 0.26718 -0.18881 -0.10972 -0.24685 -0.094493 0.23529 -0.14518 0.14273 0.1272 -0.20171 0.27361 -0.092165 0.11193 0.1065 -0.1276 0.21951 0.13811 -0.41333 -0.043519 -0.0045241 0.12837 -0.045202 -0.31705 -0.1111 0.15777 0.058137 0.026278 0.10413 0.1004 -0.26532 -0.11661 -0.40381 0.10436 -0.14699 0.21167 -0.24 0.46633 -0.022707 0.016269 0.29243 
' 0.15731 0.022676 0.099144 0.29752 -0.029325 -0.18014 0.33658 -0.047324 0.093795 0.11005 -0.10208 0.042797 0.084685 -0.13768 0.23745 0.077504 -0.026934 -0.28338 -0.0521 0.20043 -0.16512 0.04655 0.058212 0.0087372 0.20242 -0.33016 0.1134 0.21045 -0.30633 -0.15075 0.16582 0.42217 0.38766 -0.1158 -0.14998 0.30397 0.056095 -0.17441 0.15897 0.012626 -0.05282 -0.1395 -0.051421 -0.060771 0.0051987 -0.0018835 0.091734 -0.28707 -0.075498 0.21966 -0.30349 -0.14024 0.15896 0.032779 -0.075983 0.055464 0.21095 -0.071148 0.008933 -0.10651 -0.095554 -0.050044 -0.19865 -0.027653 0.046145 -0.080911 0.0675 -0.066222 0.022856 0.20052 0.10225 -0.065304 0.083136 -0.10811 -0.014071 0.1131 -0.12327 0.2579 0.10397 0.34871 0.11865 0.019007 0.08486 0.12746 0.017334 -0.12316 0.067637 0.11053 0.081619 0.048206 -0.042766 0.061001 0.31983 0.10003 -0.18372 -0.02722 -0.19598 -0.14631 -0.23152 0.15236 0.08458 0.28174 -0.0033166 -0.14676 -0.13761 -0.18443 -0.37446 0.018172 -0.079141 -0.13537 0.017731 0.18801 0.23869 0.17349 0.0036644 -0.0089925 -0.4879 0.073994 -0.24178 -0.079023 0.033207 -0.0015524 -0.084966 -0.32394 -0.11347 0.033768 0.075375 -0.088704 0.38761 0.15365 -0.046109 -0.21518 -0.03675 -0.013056 -0.19593 -0.015903 0.2986 0.059294 -0.082259 -0.25412 -0.16056 -0.19654 0.19819 0.095629 -0.075521 0.077968 0.19098 0.061536 0.14568 -0.071417 0.052316 -0.050248 -0.32955 0.35258 -0.30617 -0.11068 -0.062046 0.38841 0.16446 -0.28439 -0.13234 -0.009299 -0.15532 0.097379 -0.25051 -0.12882 -0.10574 0.1009 0.19763 -0.020747 0.074676 -0.22397 0.12603 0.13207 -0.064485 -0.4303 0.31475 0.17822 0.016107 -0.014136 -0.031807 -0.11773 0.07626 -0.099843 -0.020156 0.045514 -0.0068815 -0.14792 -0.075476 -0.052697 -0.040394 -0.083976 -0.091092 -0.015893 -0.083064 0.010011 -0.16123 0.25423 -0.44197 -0.15016 0.048227 -0.072831 -0.17057 -0.46162 -0.016284 0.090425 -0.16156 0.074051 -0.011065 0.14908 0.25997 -0.097904 -0.1536 -0.22701 -0.10724 -0.0038348 0.1558 -0.22562 0.088005 -0.11692 0.021921 -0.10578 -0.003829 -0.20813 0.15957 0.27435 0.12435 -0.011929 0.30113 0.055197 0.045926 -0.093521 -0.069436 0.21335 0.039736 -0.44317 0.1532 0.022555 -0.1284 -0.00689 -0.23397 0.45367 -0.10978 -0.15963 -0.18307 -0.19793 0.078823 -0.29058 0.089569 -0.27197 -0.32294 -0.25823 -0.095634 0.17154 -0.11614 0.10402 0.096145 0.37882 -0.28384 0.13002 0.24497 -0.35593 0.071878 -0.10632 -0.18803 0.054084 -0.0097726 0.13177 0.17861 -0.056218 0.081263 -0.27291 0.095217 0.37358 -0.016166 -0.05885 0.043808 -0.15925 -0.12739 0.049711 -0.15381 -0.17751 0.050957 0.20408 0.11351 0.44539 0.010423 -0.22033 0.17006 -0.24497 -0.2104 -0.41153 -0.016521 0.017697 -0.20899 -0.13014 0.22453 0.13316 -0.30342 -0.015065 
en 0.098693 0.15928 0.1395 -0.095722 0.17192 0.12892 0.13156 0.277 0.18787 0.10743 -0.059726 0.11196 -0.0082108 0.0058443 0.022687 0.079222 0.022705 0.076262 -0.042021 -0.0096233 -0.050091 -0.14317 -0.10293 -0.11977 0.062803 -0.11554 -0.017557 0.18423 0.054548 0.0057607 0.05125 0.19375 -0.16339 -0.058443 -0.14087 0.060572 0.089317 -0.095291 0.099319 -0.076712 0.13832 0.020821 0.078366 0.012959 0.024235 -0.0088955 -0.059342 0.057535 -0.1573 -0.24916 0.1265 0.030396 0.12307 0.14606 -0.090101 -0.086515 -0.10388 -0.083593 -0.021599 0.019171 0.14346 -0.12105 0.030207 0.056329 0.11663 -0.12475 0.19675 -0.024999 -0.039473 -0.044255 0.22292 -0.22275 0.18583 -0.048146 -0.1604 0.072995 -0.011197 0.13131 -0.014726 0.0057635 0.076354 -0.097942 0.29449 0.082747 0.012319 -0.21676 -0.018049 0.032361 0.11708 -0.15866 -0.029003 -0.11883 -0.043524 -0.097774 -0.333 -0.13664 -0.12497 0.0052456 -0.10452 -0.016981 0.00031752 0.11919 -0.098052 -0.0058413 0.12366 -0.040769 -0.15907 0.063645 -0.16955 0.067256 -0.12643 0.055304 -0.16128 -0.021834 -0.0057495 -0.014863 -0.14545 -0.11591 -0.18939 -0.28747 0.21212 -0.14138 -0.11733 -0.16782 -0.13019 -0.085787 -0.18876 -0.051529 0.079047 -0.16225 -0.094618 -0.060347 0.10806 -0.029083 -0.14833 -0.14166 -0.0086817 0.05399 0.15672 -0.062249 -0.13884 -0.08396 -0.080893 0.30486 -0.0043219 0.057536 -0.03908 -0.15369 -0.15445 -0.073704 0.078399 0.0040121 -0.16245 0.1603 -0.014971 0.020709 0.12609 0.20619 0.10832 -0.0725 0.039443 0.1208 -0.0096947 -0.10155 0.090434 -0.14586 -0.098685 -0.034553 0.01608 0.15585 0.024046 0.0031135 -0.12479 0.27805 -0.19367 -0.1993 0.12636 0.15293 0.049041 -0.064659 0.18861 -0.23107 0.16247 0.00025588 -0.099418 0.091173 -0.15799 -0.20357 -0.042888 0.21497 0.015318 -0.016772 0.19524 -0.17305 -0.014933 -0.032624 -0.037352 -0.050047 -0.16111 -0.40748 -0.10126 0.067747 -0.14923 0.036456 -0.09732 0.20325 0.11448 0.0060839 -0.088119 0.043734 0.2608 0.098887 0.07196 -0.097415 0.050684 -0.0090471 -0.1453 0.11943 0.082918 -0.16398 -0.083819 -0.06245 0.021101 -0.09455 0.13692 0.16335 -0.32314 -0.11964 0.040929 0.11472 -0.1539 0.075255 -0.19884 -0.23871 0.15212 0.0042 0.0064212 -0.004544 -0.076634 -0.090912 0.04052 -0.077496 -0.059239 0.3461 0.02508 -0.090855 0.023241 0.17683 0.12535 -0.015557 -0.18096 0.066127 0.29964 0.058525 -0.084838 0.1008 0.11876 0.16224 -0.079864 -0.10261 0.062711 0.024644 -0.1157 -0.0030209 0.014713 -0.0021701 0.095309 -0.02521 0.1016 -0.027347 -0.099553 -0.069076 0.19951 0.0030125 -0.13525 0.30874 0.0014012 -0.19847 -0.070119 0.010326 0.11173 -0.23523 -0.026616 0.16545 0.099677 -0.11938 -0.0072979 0.18776 -0.097408 -0.22889 -0.090674 -0.23439 0.2685 -0.065509 0.14206 -0.048958 0.13676 -0.24336 -0.093378 0.11653 
is 0.32677 0.17339 -0.16642 -0.042601 0.19765 -0.091509 0.25232 -0.0078767 0.25169 0.081252 -0.095366 0.045494 -0.18781 0.078755 0.0035402 0.029254 0.071908 -0.091353 -0.13052 0.079552 -0.1522 0.015294 0.032315 -0.042743 0.1572 -0.29255 0.22627 -0.002642 -0.079562 -0.043972 0.094599 0.65908 -0.025851 -0.008356 0.10842 0.096159 0.24719 -0.037805 0.23961 -0.16318 -0.083906 -0.21159 -0.27349 -0.026241 0.24084 -0.0078812 0.13323 -0.30042 -0.24277 0.12709 -0.32441 -0.11218 0.18841 0.012574 0.087879 0.0024089 0.26823 -0.11665 0.025694 0.21797 -0.11669 0.23299 -0.1806 0.094173 -0.052354 -0.11545 0.0094257 -0.16552 -0.0028994 0.30872 -0.0055864 -0.14504 0.00067066 0.033089 0.11757 0.20331 -0.07255 0.1022 0.045364 0.34199 -0.10452 -0.019252 0.31748 0.014683 0.21402 0.042271 0.057688 0.10859 -0.16732 -0.10162 -0.016097 -0.29761 0.40888 0.079188 -0.057899 0.0094213 -0.26471 -0.17229 -0.20866 -0.077318 -0.076708 0.1679 -0.026024 0.11759 0.11398 -0.30541 -0.15046 0.14856 0.04803 -0.10575 -0.057609 0.038552 0.0456 -0.020436 0.1261 -0.065847 -0.1902 -0.24656 0.15763 0.1662 0.16084 -0.39955 -0.051947 -0.2934 -0.37292 -0.22462 -0.078607 -0.0078696 0.096987 -0.065682 -0.00024033 -0.15112 0.048252 0.1776 -0.09209 0.089239 0.19021 -0.17417 -0.031245 -0.2132 -0.26394 -0.19782 0.099356 0.11206 0.090779 -0.039843 -0.16236 0.041631 -0.34745 -0.18269 -0.1127 -0.12663 -0.2484 0.3371 -0.32282 -0.25761 -0.086745 0.2771 0.17259 -0.31192 0.0027728 0.016843 -0.16531 0.088775 0.010649 0.15594 -0.056908 0.011341 0.16179 0.0326 0.19308 0.053191 -0.036537 0.44221 0.044702 -0.43202 0.0032382 0.27244 -0.094438 -0.026585 -0.0284 -0.094016 0.079416 0.057356 -0.067896 -0.095755 -0.031493 -0.1501 -0.31845 -0.057101 -0.15704 -0.041748 0.0045218 -0.056219 -0.036055 0.2445 -0.024192 0.22137 -0.24426 -0.042884 0.081493 -0.039309 -0.1885 -0.4115 0.035701 0.27894 -0.073089 -0.13289 -0.17773 0.10935 -0.023324 -0.0085562 0.066571 -0.10499 0.062685 0.057221 -0.12692 -0.058843 0.31625 -0.15378 -0.038235 -0.0027755 0.17088 -0.061054 0.01886 0.0099862 0.13388 0.084984 0.56791 0.18128 0.032555 0.013486 -0.025783 -0.080622 0.44059 -0.32032 0.14951 -0.049627 0.065282 -0.12804 -0.054542 0.2161 -0.25957 -0.22123 -0.055943 -0.028044 0.16538 -0.1121 -0.054366 -0.10534 -0.30472 -0.18917 -0.08035 -0.0036185 -0.0037624 0.26986 0.018511 0.17207 -0.11735 0.17188 0.12458 -0.13569 -0.005646 -0.076008 -0.06362 -0.014709 0.046082 0.0097283 0.29412 0.047555 -0.16454 -0.059771 0.12659 0.20584 0.011855 -0.22305 -0.076019 -0.049475 -0.29898 -0.023497 0.056216 0.24457 0.11467 0.23808 -0.029848 0.14618 -0.087893 -0.2156 -0.17022 0.051268 -0.05882 -0.30559 0.17158 -0.036068 -0.15632 0.22196 0.46994 -0.059553 -0.18838 -0.013696 
op 0.032207 -0.10724 0.022462 0.017787 0.26717 0.15396 0.11995 0.30454 0.3113 -0.10062 -0.27137 0.11766 0.086312 -0.049184 -9.1046e-06 -0.073466 0.14838 -0.070205 -0.10229 0.074666 -0.15684 -0.30631 -0.13879 -0.074086 -0.29973 -0.1282 0.19452 -0.095407 -0.36884 0.30073 0.13292 0.10058 0.039836 0.080977 0.14754 0.039745 0.32089 -0.21668 0.20625 -0.18189 0.15866 -0.23921 0.049346 -0.11257 0.18211 -0.15014 -0.1994 -0.31122 0.17136 0.18492 0.11663 0.18425 0.077249 0.24349 0.048877 -0.14501 -0.03214 -0.2549 -0.088116 -0.12465 0.043993 -0.07603 -0.21819 -0.075931 -0.070015 0.084416 0.057405 -0.12237 0.056669 -0.20208 -0.05693 0.096732 -0.016954 0.091243 0.039674 -0.14133 -0.17105 -0.057683 -0.001199 0.24076 -0.16793 -0.058119 0.065193 0.022081 -0.24252 -0.55386 -0.24 0.19743 0.056083 -0.035713 -0.1206 -0.21386 0.089052 -0.12269 0.18096 -0.1676 -0.077329 0.044561 0.072175 0.045391 -0.037574 0.38856 0.088175 0.15323 -0.018535 0.13383 -0.024089 -0.088373 -0.15638 0.017282 -0.12752 -0.0017299 0.070822 -0.13679 -0.18426 -0.10941 0.14729 0.11917 0.05141 -0.18545 -0.25256 -0.019521 -0.16693 -0.15192 -0.080692 0.012751 0.057795 0.15755 0.017748 0.08212 0.29241 0.10858 0.17252 -0.049288 0.0057521 -0.42084 -0.2747 -0.037296 0.17925 0.16896 -0.13278 -0.016109 0.0080077 0.2696 -0.093999 -0.015778 0.023588 -0.2147 -0.15247 -0.12675 0.12069 -0.010555 -0.11162 0.040989 -0.061467 0.23869 -0.23238 0.24386 -0.1625 -0.071681 0.054726 0.14855 -0.069568 -0.12972 -0.083902 0.13023 -0.07016 0.10096 -0.0042569 -0.20151 0.056813 0.17121 -0.24788 0.37186 -0.06189 -0.068319 0.072683 0.20683 -0.054144 -0.05388 0.231 -0.0068967 0.057096 0.19312 0.021765 -0.084409 -0.32512 0.0047493 -0.1177 0.2458 0.17489 0.22172 0.19119 -0.064511 0.14314 -0.047642 -0.20104 -0.17205 -0.19178 -0.27949 0.18794 -0.040482 -0.17378 0.012732 -0.15091 0.25701 -0.093864 0.076557 -0.10557 0.32632 -0.07986 0.063553 -0.081117 0.061731 -0.15824 0.1125 -0.17582 -0.095284 0.024602 -0.14506 -0.15249 -0.038444 -0.049736 -0.068383 0.033202 0.36006 -0.53752 0.29934 0.12705 0.027115 -0.31713 0.14176 0.12972 -0.13775 0.31749 -0.13908 0.065172 -0.075218 -0.093544 0.05907 -0.14774 0.016289 -0.12553 0.21334 0.13949 0.1553 0.046441 0.29714 -0.040088 0.024584 -0.19524 -0.045135 0.12752 0.10613 0.036392 -0.090517 0.050058 0.20431 0.032023 0.009179 -0.18497 0.035002 0.0094938 -0.24146 0.069053 0.23524 0.14658 -0.11137 0.049653 0.10769 -0.15403 0.077925 0.24281 -0.1662 0.085285 0.25821 0.14582 -0.35303 0.1078 -0.11529 0.055758 -0.076664 0.01725 0.15393 0.29061 -0.027268 0.15301 0.11933 0.020832 -0.3421 0.020901 -0.39679 0.28659 -0.15954 -0.14629 -0.28961 0.39602 -0.0056902 -0.31675 0.17908 
voor 0.044688 -0.16201 -0.091005 0.006334 0.20997 -0.058378 -0.011901 0.17303 0.31522 -0.25804 -0.16366 0.16742 0.082173 0.1729 -0.037514 0.020346 0.39088 -0.074642 0.060014 0.33038 -0.13161 0.17312 0.064195 0.29675 0.18591 -0.081753 0.021315 0.1357 -0.0043058 -0.3179 -0.025716 0.32953 0.18145 -0.059808 -0.11956 -0.2081 0.29129 0.037789 0.045499 -0.061178 0.031628 0.039221 -0.12181 -0.079323 0.036666 -0.066493 -0.053377 -0.09555 -0.3106 0.10654 0.056243 0.087928 -0.039902 0.18109 -0.1258 -0.076756 0.072956 -0.11048 0.035744 -0.044222 0.073432 0.2276 0.062464 -0.039267 -0.11685 -0.027004 0.15908 -0.078041 -0.055284 -0.097177 0.29587 -0.031229 0.19507 -0.029437 0.18586 0.099853 -0.06894 0.080935 -0.19264 0.20263 -0.035179 -0.0041208 0.095463 -0.11908 -0.15392 -0.28755 0.023885 0.01022 -0.23939 -0.1173 0.050115 -0.34662 -0.22657 0.4566 -0.060719 -0.16313 -0.059146 -0.098374 -0.029938 -0.17686 -0.044834 -0.038911 -0.061434 0.30655 0.30519 -0.18136 -0.23164 0.068603 -0.123 0.26257 -0.23634 -0.19746 -0.0022878 0.10189 0.24526 0.23812 0.03661 -0.54357 0.29865 0.0091809 0.094027 -0.099352 -0.16556 -0.31443 -0.099791 0.24361 -0.22431 -0.012201 0.25812 -0.015317 0.081393 -0.083696 0.18041 0.04564 -0.30056 -0.085581 -0.24566 0.2087 -0.17178 -0.15947 -0.31258 -0.012354 -0.04041 0.28594 0.17735 0.14457 0.2393 -0.25123 -0.37165 0.10904 0.052451 -0.069088 -0.040992 0.35268 -0.19484 -0.0999 0.11656 0.38515 -0.067746 -0.19499 -0.010056 -0.067788 0.17597 0.23865 -0.12167 -0.12666 -0.19246 0.018437 0.12727 0.12905 0.18653 0.25537 0.021495 0.23842 -0.02873 -0.14774 0.1352 0.12446 -0.12942 -0.037198 0.032976 -0.25375 -0.0050852 -0.2283 -0.2239 -0.078196 0.055011 -0.22803 0.046334 0.15538 -0.37539 0.2622 0.10604 -0.24627 0.16273 0.15894 -0.17175 -0.073256 0.012139 -0.20961 0.099044 0.097573 -0.29754 -0.42075 -0.2892 0.2825 -0.030331 -0.028619 -0.12821 -0.029504 0.2679 -0.020827 0.16621 -0.31507 -0.18345 -0.020833 -0.031911 0.22004 0.1746 0.019649 -0.049996 -0.041181 -0.01458 -0.033099 0.16765 -0.049584 -0.10495 -0.039624 0.12347 0.1785 -0.039344 0.050877 -0.094285 -0.013986 0.27166 -0.1735 0.18849 0.045682 0.015931 0.35372 -0.00068596 0.061207 0.19521 0.2462 0.048411 0.040072 0.092438 0.22813 0.004265 -0.27789 -0.11651 -0.064683 -0.061973 0.1455 -0.24733 0.39738 0.082293 0.27199 0.092142 0.088716 -0.23665 0.044236 -0.1134 -0.23295 -0.16139 0.12652 0.036502 -0.10103 0.098276 -0.11718 -0.16845 -0.0098852 0.29045 -0.021461 -0.088842 0.26922 -0.26268 -0.20976 -0.24989 0.37754 0.034587 -0.12211 -0.11025 0.040802 0.024853 0.15042 0.11296 0.24432 -0.20534 0.083961 0.34418 -0.21009 0.12183 0.076347 -0.043053 0.041318 0.54172 -0.17214 -0.35645 0.12489 
met 0.14436 -0.04797 0.10571 -0.17086 0.38577 0.22782 -0.11707 0.057694 0.16178 -0.031673 -0.24309 0.1518 -0.16578 -0.057802 -0.065428 0.25945 0.079648 0.016396 0.030244 0.077025 0.079097 -0.070918 -0.12372 0.12919 0.050699 -0.15413 0.062883 0.017995 0.049996 0.025553 0.080945 0.19151 -0.0069098 0.013273 -0.06631 -0.20249 0.16714 -0.14589 -0.0053263 -0.19785 0.16534 -0.035443 0.1847 -0.17603 0.01943 0.10383 0.055515 -0.068238 0.094474 0.056245 0.084612 -0.09836 0.022107 -0.017102 -0.12528 -0.10301 -0.23112 -0.12752 -0.3455 -0.13916 0.037184 0.14335 -0.13336 -0.087155 -0.30777 -0.11945 0.070893 0.065422 0.0010078 -0.033233 0.13807 -0.28771 0.22544 0.15893 -0.062153 -0.075806 0.12579 0.074132 0.033267 0.00015324 0.048339 -0.24677 0.040728 -0.083975 0.01763 -0.34248 0.18765 0.0048992 -0.029885 -0.13101 -0.059499 0.010997 0.074726 -0.018535 -0.23012 0.064152 -0.29172 0.2096 -0.0011287 0.0044279 -0.13117 0.10129 0.028485 -0.067076 -0.07102 -0.048519 0.051645 0.078823 0.061146 -0.074435 -0.28545 0.23417 -0.14045 -0.26872 -3.8866e-05 -0.0021935 0.077101 -0.049911 -0.042666 -0.11921 0.16449 0.0059873 -0.080882 -0.11872 0.14366 -0.086528 -0.043433 -0.09382 0.076369 0.2622 0.1415 -0.21966 0.12538 0.050292 -0.076343 -0.2828 -0.22967 0.15491 0.25273 0.26401 -0.068808 -0.1686 -0.016625 0.24931 -0.00071374 0.05428 -0.10259 -0.18163 0.0063683 -0.050161 0.0038598 -0.04849 -0.33881 -0.046705 0.074062 0.34566 0.027509 0.20851 0.21326 0.16228 0.11167 0.27168 -0.12139 -0.25948 0.049934 -0.0086707 -0.10422 -0.15136 -0.17043 0.036492 0.20971 0.063991 -0.14607 -0.063693 0.16569 -0.16189 0.091127 0.32287 0.12472 0.10166 0.17623 -0.27086 0.31239 0.13839 -0.072656 0.28456 -0.34761 -0.34501 0.012316 0.11666 0.056083 -0.086563 0.061191 0.047723 0.1823 0.10028 0.10728 -0.064216 -0.18183 -0.30686 0.1145 -0.19529 -0.26392 0.018748 -0.12103 0.11304 0.063888 0.065791 0.046775 0.28426 -0.0034888 -0.091851 0.12168 0.12985 0.050372 0.24072 0.080285 -0.012449 -0.033109 -0.15829 -0.1653 -0.099618 0.28734 0.092873 0.26807 0.19311 -0.26073 -0.0099574 0.29115 -0.051527 0.014534 0.029102 0.035682 -0.18071 0.1548 -0.066766 0.10812 -0.0026066 -0.10117 -0.24965 -0.080081 0.020967 -0.13657 0.26776 0.18957 -0.087077 -0.0016451 0.12119 0.1396 0.098605 -0.14708 0.016372 0.33989 0.066052 -0.17521 0.029737 -0.12458 0.086257 -0.088954 0.063727 0.12264 0.18879 -0.0084654 -0.2898 -0.032273 -0.027925 0.23453 0.085628 0.027897 0.035184 0.12334 -0.04696 0.35065 -0.21535 -0.11566 0.36255 0.017416 -0.085524 -0.13139 -0.17655 0.11079 -0.26357 -0.023078 0.22428 0.0307 0.1336 0.20698 0.2182 0.065623 -0.097413 -0.029329 -0.053773 0.14191 0.0086178 -0.13818 0.026496 0.30189 -0.20963 -0.10828 0.39469 
door 0.060351 -0.14449 -0.020893 -0.048615 0.42949 -0.00044948 0.039005 0.35173 0.38082 0.088433 -0.1881 0.22482 -0.27014 -0.041941 -0.2024 -0.048641 -0.015934 0.02332 0.10546 -0.0032918 -0.30818 0.14242 0.031297 -0.044761 -0.23494 0.056219 0.34201 -0.087943 0.053006 -0.11367 0.22326 0.12782 0.031858 -0.27369 -0.079207 -0.35923 0.42236 -0.0012085 -0.12336 -0.055684 -0.027676 -0.028014 -0.030575 0.11096 -0.064587 -0.025667 0.25673 0.1235 -0.087536 0.15739 -0.044686 0.049349 0.067152 0.062545 -0.22903 -0.1078 -0.0061058 -0.12291 -0.090503 -0.0015068 -0.10695 0.014719 -0.07455 -0.18505 -0.04977 0.015654 0.031754 -0.076653 0.1498 0.14418 0.18692 -0.5262 0.11294 -0.11602 0.26518 0.53126 -0.031212 0.1911 0.15257 0.031448 -0.29471 0.073188 -0.051123 -0.0052094 0.1231 0.092662 -0.040238 0.16528 0.14994 -0.16738 0.13225 -0.12385 -0.047042 0.058807 -0.22627 0.052232 -0.069544 0.030092 -0.25955 -0.050467 -0.040311 0.10001 0.021072 0.45663 0.44091 -0.29856 -0.068326 0.019503 0.054893 0.11101 -0.35049 0.030625 -0.08422 0.1465 -0.25146 -0.044344 -0.25782 -0.30443 0.31829 -0.047415 -0.0089649 0.080071 -0.072012 -0.30924 -0.13538 0.13255 -0.22755 0.145 -0.095503 -0.096647 0.10824 -0.3538 0.31662 0.075296 -0.14059 -0.19211 -0.3366 0.37409 0.073842 -0.051272 -0.1831 -0.091026 -0.016375 0.31512 0.25829 0.16806 -0.1272 -0.066871 -0.24316 -0.046363 -0.068234 -0.024915 0.0034634 0.096704 -0.44741 -0.13091 -0.18 0.39703 -0.14047 -0.14966 -0.12874 0.089478 0.19951 -0.015203 0.03107 -0.026147 -0.30205 0.030583 0.043954 0.12096 0.030662 0.22469 -0.021743 0.37743 -0.10524 -0.039979 -0.21596 0.14404 -0.042559 0.075588 0.047536 -0.032721 0.10388 -0.32064 -0.23161 -0.072456 -0.082622 -0.048288 -0.08263 -0.015307 0.018107 -0.16171 0.074423 -0.051069 0.12534 0.1401 -0.057181 -0.1395 -0.22383 -0.35284 -0.014257 0.065799 -0.042457 -0.32456 -0.31638 0.16908 -0.10689 -0.014518 -0.013455 0.067678 -0.15073 -0.03117 0.15818 0.16096 0.072442 -0.24732 0.01839 -0.18507 0.079877 -0.17286 0.14357 0.058401 0.074642 0.1582 0.19905 -0.020323 -0.11875 0.20844 0.22349 0.16717 0.096824 -0.15343 -0.19463 -0.047055 0.46071 -0.058493 0.27659 0.10032 -0.093977 0.20204 0.13943 -0.0049518 0.30751 -0.025749 0.15772 0.23916 0.2325 0.13185 0.24675 -0.12951 -0.18446 -0.26745 0.25951 -0.15348 -0.19836 0.49786 -0.028886 0.18146 -0.019858 0.055585 -0.033415 0.16354 0.011784 -0.23024 -0.10428 -0.11236 0.11416 0.064959 0.25775 -0.11916 -0.15657 -0.025487 0.4318 0.11537 0.13273 -0.017113 -0.042329 0.12383 -0.12172 0.26329 0.24552 0.17435 0.044696 0.27104 0.2927 0.15428 0.071028 0.21744 0.13281 -0.093806 0.079363 -0.2737 -0.1088 -0.14047 0.0065788 -0.088389 0.34365 -0.31759 -0.11667 -0.17379 
zijn 0.3387 -0.15202 0.13812 0.1656 0.28157 0.087541 0.015012 0.20751 0.15734 0.11627 -0.209 -0.049182 -0.080112 -0.14078 0.10798 0.083177 0.077467 0.029507 0.029989 0.17118 0.01939 -0.03254 -0.060742 -0.014809 0.0099185 -0.039174 -0.086927 0.010042 -0.048001 0.13371 0.2458 0.19289 -0.27209 0.053348 -0.18486 0.052934 0.1446 -0.042841 0.096435 -0.067838 0.19547 -0.063513 -0.092445 -0.16968 0.045062 0.11371 0.0013348 -0.048266 -0.062988 0.06408 0.029964 -0.084057 0.077398 0.043728 0.037248 -0.2031 0.12196 -0.10306 -0.21192 0.077544 -0.0051171 0.0097195 -0.16365 -0.25232 -0.090313 -0.13315 0.094969 -0.060022 -0.16457 0.13374 0.030289 -0.39934 -0.23202 0.087576 0.26851 -0.053431 0.14747 -0.024664 0.0080147 0.013918 0.0029521 -0.13429 0.26668 0.1383 0.10854 -0.07999 0.055987 0.01433 -0.091889 -0.13231 0.026196 -0.11928 -0.012655 -0.016908 -0.035711 -0.20749 -0.22904 0.13084 -0.15297 0.081673 0.048195 0.12786 -0.10795 -0.04796 0.090366 -0.038379 -0.24176 -0.01079 -0.12728 0.1494 -0.0040359 -0.0086248 -0.30573 -0.1851 0.044922 0.050309 0.17494 -0.030222 -0.13805 -0.084319 0.15197 -0.24322 -0.23581 -0.10342 -0.19803 -0.16498 -0.21591 -0.097407 -0.0019239 0.12924 -0.10363 -0.041251 -0.046356 -0.15141 -0.10845 0.043855 -0.23084 -0.0050495 0.18931 0.072445 0.054677 -0.1969 0.05855 0.025436 0.017967 0.0006455 -0.047933 -0.071753 -0.11912 -0.050746 -0.12173 -0.051421 -0.32966 0.19328 0.013409 0.18233 0.057392 0.21266 0.051647 -0.079254 0.078161 0.048377 -0.0057719 0.093961 -0.047548 0.075233 -0.15135 -0.16411 -0.012594 0.069139 -0.064524 0.045552 -0.23871 0.014993 -0.03264 -0.049387 0.17329 0.1837 -0.11467 -0.13012 0.11365 -0.19249 0.060322 0.16276 0.14022 0.064235 -0.024755 -0.33694 0.17673 0.28763 0.14167 0.037793 -0.091161 0.027759 0.0065312 0.15682 -0.073019 -0.10878 -0.27521 -0.26045 0.17093 0.1523 -0.26397 0.1044 -0.19468 0.0049995 0.037235 -0.25714 -0.24586 0.14775 0.014983 0.23232 0.11817 -0.014494 -0.10243 -0.018483 -0.23354 0.073067 0.16458 0.027092 0.16125 -0.044423 0.16789 -0.053371 -0.0030083 0.11865 -0.26 0.21554 0.22109 0.13455 -0.19301 0.091714 -0.19254 -0.016151 0.24495 0.027305 0.12224 -0.031205 0.081844 0.039732 0.021061 -0.2195 -0.033572 0.22594 0.33231 0.070102 0.091193 0.36947 0.0096533 0.23996 -0.25694 0.021518 0.2799 0.010066 0.02012 -0.024801 0.07832 0.062039 0.069874 0.044224 -0.093338 0.024621 0.04641 -0.23931 0.1749 -0.10799 0.22923 0.09154 0.1109 -0.030046 0.13075 -0.0083617 0.1888 -0.19514 -0.34748 0.10249 -0.095521 0.02314 -0.10409 -0.073592 0.26797 0.0082209 0.12844 0.24544 0.14623 -0.069655 0.094 0.30172 -0.1836 -0.1147 0.054748 -0.49976 0.25644 0.079833 0.0037152 -0.0056709 0.075915 0.033131 -0.020745 0.20203 
uit 0.42442 0.080057 0.035936 0.39369 -0.17451 -0.037168 0.25432 0.1052 0.17716 0.24584 -0.069743 0.1566 0.054051 0.13954 -0.076373 0.38029 0.15137 -0.28399 -0.32126 0.0238 -0.26745 0.10838 0.11026 -0.019861 0.12603 -0.077343 0.17154 0.023606 -0.15135 -0.233 0.13805 0.28024 0.1853 -0.029289 -0.25594 0.15057 0.28837 -0.098709 0.01486 -0.32382 -0.52284 -0.082586 -0.18488 0.19463 0.0685 -0.35779 -0.018125 -0.29352 -0.29909 0.1893 -0.65899 -0.37352 0.39723 0.051848 -0.19907 -0.17473 -0.3541 0.037509 -0.1181 0.37123 0.044517 0.016688 -0.1465 -0.020777 -0.26483 -0.083531 0.11683 -0.11624 0.082005 0.28952 0.088884 0.019257 0.3427 -0.1193 -0.086494 0.42014 -0.033583 0.19576 -0.01274 0.15265 -0.065593 -0.097257 0.23961 -0.099876 0.044184 -0.0070229 0.15676 -0.1282 -0.16152 0.01799 0.15181 -0.13703 0.12954 0.21146 -0.33239 -0.2024 -0.24109 0.054658 -0.17701 0.0092309 -0.16303 0.14113 -0.060364 -0.1703 -0.22176 -0.067598 -0.07335 0.25969 -0.006704 -0.17611 -0.16617 -0.14143 0.066382 -0.068986 0.23784 0.046426 -0.39626 -0.16969 0.0024976 0.18543 0.1708 -0.066731 0.0418 -0.25742 -0.053106 -0.033687 -0.18585 -0.0044463 0.27859 0.50413 -0.013767 0.063761 0.12482 0.15524 -0.067918 -0.087328 0.034742 0.098566 -0.12863 -0.1287 -0.09024 -0.019578 -0.11944 0.13808 -0.22711 -0.090025 0.053017 -0.11201 -0.40369 -0.25268 -0.006163 -0.17706 0.20248 0.5239 -0.31309 -0.24924 -0.021449 0.3258 0.32874 -0.33878 -0.14479 -0.0076871 -0.057286 0.24382 -0.039193 -0.18081 -0.27982 -0.16777 0.13662 0.076919 0.031065 0.0012626 -0.0514 0.32967 -0.021613 -0.18265 0.030865 -0.062066 -0.27221 -0.017364 -0.020201 -0.35216 0.14875 -0.085838 -0.096103 -0.20138 0.32239 -0.030237 -0.33524 0.16219 0.28944 -0.0088141 -0.08315 0.008018 0.29869 0.066223 -0.026169 0.064697 -0.44623 -0.3524 0.11035 0.0025194 -0.013192 -0.039449 0.030705 0.04045 0.1295 -0.18827 0.12529 0.095981 -0.088211 -0.25247 0.1275 -0.076237 0.040272 0.28459 -0.1644 0.21082 -0.095079 -0.093988 0.04842 0.1577 0.12428 0.078291 0.33116 0.32926 0.1842 0.060905 0.39999 0.024333 -0.043711 -0.047627 -0.45451 -0.15964 0.27265 -0.4336 -0.059814 0.19598 -0.15937 0.030214 -0.048922 -0.067378 0.21482 -0.01727 0.044962 -0.039469 0.29243 0.0039516 0.031485 -0.096987 -0.25369 -0.20408 -0.25864 0.036366 -0.17908 0.39687 0.077504 0.30989 -0.03676 0.27334 -0.046206 -0.15997 -0.10887 -0.15939 -0.012699 0.19603 0.1639 -0.047791 0.25805 -0.071802 0.13539 -0.15602 -0.18749 0.28851 -0.11802 0.28396 -0.32378 -0.30507 -0.17432 0.1121 0.077813 0.045239 0.2441 0.42958 -0.037732 0.3583 0.16337 -0.027778 -0.11598 -0.35255 -0.04586 -0.13891 0.13479 -0.28767 -0.1135 -0.23617 0.14656 0.064495 -0.27416 -0.10393 
te -0.054995 -0.0014026 0.017083 -0.15154 0.14392 0.26994 0.059812 0.047325 0.23045 0.20999 -0.40172 0.26837 0.088538 -0.24976 0.11299 0.077821 0.082753 -0.073579 0.36634 0.30089 -0.081481 0.0021419 0.029678 0.010294 -0.15357 -0.20758 -0.035687 0.31137 0.024206 -0.042639 0.19691 0.36339 -0.23952 0.058937 -0.15723 0.16347 0.14986 -0.018685 0.11272 -0.18087 0.30923 -0.067889 0.10755 0.20031 -0.05479 0.050987 0.058863 -0.027872 -0.0034873 0.11199 0.048951 0.01774 -0.0098421 -0.16853 0.017403 -0.031481 -0.12866 0.0053066 -0.043861 0.027667 -0.058189 -0.15236 0.012796 -0.10912 -0.11059 -0.11931 0.076978 0.085498 0.17301 0.033061 0.19664 -0.016599 0.13191 0.24162 0.18634 0.039085 -0.25877 0.24839 0.006909 0.19836 -0.066791 -0.022821 0.1948 -0.14126 0.096486 -0.29273 -0.064964 -0.058748 -0.13818 0.049467 0.10803 0.26695 0.070863 0.21622 0.027499 -0.12732 -0.27135 -0.0090137 -0.0066544 -0.048151 -0.29442 -0.021957 -0.098149 0.084143 -0.013744 0.24688 -0.17978 0.24465 -0.054041 0.16409 -0.13511 0.13511 -0.017174 -0.19979 -0.029753 0.039854 -0.086412 0.31694 0.25306 0.024835 0.16577 0.023337 -0.24012 -0.21766 -0.21986 0.035503 0.043988 0.068919 -0.020668 0.064202 -0.11782 -0.024793 0.045277 0.15261 0.11213 0.039652 -0.33741 0.19968 0.095132 0.10351 -0.26175 -7.1585e-05 -0.085641 0.072641 -0.09749 0.030033 -0.0037046 -0.23722 -0.01773 -0.10402 -0.14715 0.17895 -0.22586 -0.024363 0.13218 0.011793 -0.070563 0.12206 0.013891 -0.24995 -0.098743 0.10558 0.15581 -0.0068964 0.0059369 0.15372 -0.016734 -0.097306 0.22686 -0.031821 0.11928 0.050962 -0.43735 0.11657 0.030065 -0.18469 0.12174 0.2219 -0.19265 -0.0044416 0.093527 -0.19746 -0.031351 -0.32025 0.02926 -0.038828 -0.098621 -0.32919 0.38548 -0.032405 0.093397 -0.17703 0.15919 -0.15118 0.12024 -0.13172 -0.22863 0.19414 -0.12217 -0.47083 0.29399 0.042115 -0.069072 0.14537 -0.10765 -0.035583 -0.15599 0.14751 -0.15434 0.1815 0.048509 -0.019567 0.045762 -0.15962 0.017905 -0.16419 -0.24544 -0.074831 0.20581 0.053614 0.25768 0.2685 0.15935 0.023429 0.012251 0.063797 -0.27092 0.245 -0.04067 -0.063148 -0.19476 0.17239 0.059052 -0.28581 0.49758 -0.15816 0.15754 -0.029211 0.26592 -0.027852 -0.15327 -0.10353 -0.085849 0.2418 -0.065011 -0.0016223 0.07009 0.40323 0.031643 0.26114 -0.21754 0.14422 0.27226 0.18611 0.051272 -0.0091153 0.10777 0.03518 0.0023071 -0.077458 -0.13018 -0.12557 0.17397 -0.04895 0.13365 0.30024 0.26056 0.057955 0.0037115 0.031706 0.056898 0.1603 0.12915 -0.35373 0.045598 0.35094 -0.10113 -0.21888 -0.24902 -0.31387 0.29097 -0.096897 0.10555 0.11307 0.25599 0.086152 0.15683 0.24424 0.19487 -0.32774 -0.072268 -0.11097 0.41458 0.04331 -0.048452 -0.17917 0.0029004 -0.22227 -0.16238 0.018134 
rd 0.13998 -0.14788 0.38655 0.15611 0.48328 0.56194 -0.18732 0.069022 1.2078 0.69521 -1.2903 -0.28197 -0.43458 -1.0972 0.99195 0.37293 0.48589 0.45857 -0.30016 0.45656 -0.74118 0.13765 -0.56368 -0.15771 -0.48824 -0.36289 -0.001662 0.65512 -0.44875 -0.41353 0.95862 0.40568 -0.2312 0.39113 -0.33738 0.047927 -0.93249 0.34457 0.43526 -0.018262 -0.19026 -0.37902 0.78692 0.13234 -0.13364 1.0934 0.10278 0.12559 0.31134 0.79983 -0.45032 0.82727 -0.41655 -0.18004 -0.21465 0.04984 -0.63963 -0.84184 0.077646 -0.66705 -0.41545 -0.31664 -0.62173 0.52631 0.23644 -0.1976 0.20651 0.42161 -0.33816 -0.16397 -0.15065 0.36705 0.081887 -0.13009 0.17149 0.27251 0.016539 0.27508 0.60096 -0.17459 0.0085439 -0.055563 0.36939 -0.32152 0.45778 -0.43853 -0.3681 0.86914 -0.30877 -1.2039 -0.11264 0.42262 0.29242 -0.013423 -0.15619 -0.41257 -0.38436 -0.073612 0.23954 0.40897 -0.29083 1.288 -0.67786 -0.402 0.83436 -0.44818 0.55357 -0.062106 -0.87444 0.025206 -0.37878 0.9201 0.084947 0.12317 0.084479 0.15123 -0.70906 0.084927 -0.45517 -0.092141 -0.77705 0.10207 -0.66344 -0.86473 1.0954 -0.069136 0.16996 -0.24364 -0.38844 0.34043 0.37033 -0.40175 0.26528 -0.10398 0.21135 -0.23142 -0.53346 -0.0074014 0.11915 -0.51215 -0.03506 -0.41805 0.97557 0.61018 -0.27163 -0.71064 -0.30243 -0.40975 0.64461 -0.40749 0.11228 -0.19463 -0.24018 0.8299 -0.41488 0.33576 -0.22961 0.47192 0.044439 -0.1705 -0.89961 0.10247 0.10755 0.47505 -0.1147 -0.0015669 -0.26874 0.061217 0.55294 0.15265 -0.43947 -0.19139 0.33319 -0.031843 -0.1536 -0.47791 0.90061 0.5638 -0.15122 -0.0086931 0.31664 -0.71557 -0.14116 -0.74618 0.15288 0.41483 0.091813 -0.33708 0.55402 0.32724 -0.89332 -0.29865 0.49928 -0.16684 0.40319 0.82843 0.098193 -0.089922 -0.83825 -0.25366 -0.63887 -0.022191 0.13535 -1.0422 0.12189 -0.30169 0.56321 0.64829 0.36587 -0.65183 0.66773 0.45121 -0.049185 -0.073568 0.094502 0.016642 0.64369 0.15035 -0.67318 0.58686 0.29938 0.48347 -0.29213 -0.2393 -0.043409 0.66333 -0.42864 0.18094 0.59489 0.71495 0.19241 -0.55905 0.22962 -0.3312 0.36395 -0.37661 -0.18221 -0.018384 -0.49927 0.42089 -0.090197 0.27451 -0.24725 0.13237 0.75871 -0.31314 -0.28047 -0.33948 -0.17295 -0.48919 -0.093443 -0.044494 -0.21806 -0.65432 -0.97923 -0.69392 0.69268 -0.091861 -0.1048 -0.27917 0.23383 -0.18161 -0.30216 0.01542 0.18089 -0.63351 0.10726 0.78064 0.0032067 -0.34116 0.65434 -0.09302 0.23017 0.41944 -0.067903 0.16955 -0.51787 -0.74086 0.9562 -0.11508 0.31714 -0.66521 -0.33048 -0.266 0.26504 0.29958 0.29064 -0.54054 0.040434 0.010968 -0.26701 -1.4777 -0.010909 0.33975 -0.53948 -0.73183 -0.40603 0.058121 0.041984 -0.53472 
hij 0.1713 -0.1502 0.042277 0.017351 0.13798 0.2556 -0.016475 0.08223 0.2896 0.1427 -0.33415 0.20861 0.18605 -0.22653 0.032115 -0.018686 -0.019728 0.046041 0.12668 0.13587 0.14086 -0.080267 -0.095674 0.11071 -0.0122 -0.019977 -0.081355 0.1767 -0.17065 -0.053534 0.020096 0.22016 -0.15105 -0.095817 -0.32887 -0.16565 0.24465 0.080672 0.09331 -0.088628 0.1487 0.12706 0.11689 -0.047395 0.15876 0.094452 -0.24243 0.15764 0.097644 0.077393 -0.1895 0.041713 0.24104 0.25669 -0.013856 -0.18133 -0.010523 0.16629 0.046421 0.077371 0.18543 -0.060155 -0.2614 -0.33879 -0.060792 -0.13979 0.11636 0.18956 -0.16839 -0.19869 -0.082707 -0.32334 -0.1508 0.44926 0.20066 -0.053499 -0.083221 0.31522 -0.1511 -0.02618 0.17194 -0.14987 0.13636 -0.045633 -0.061908 -0.23855 -0.056173 0.077369 0.071382 -0.021634 0.22739 -0.37786 0.14076 -0.085297 -0.068534 -0.16388 -0.19966 0.10065 -0.010839 0.028189 -0.057082 0.08603 -0.22792 0.061935 -0.00108 0.23394 -0.23039 0.13643 -0.075451 0.22881 0.0099916 -0.26745 -0.29248 -0.11864 0.25485 0.092758 0.31128 -0.016 -0.1478 -0.27713 0.13828 -0.067806 -0.22562 -0.1339 0.20709 -0.1367 -0.096928 0.090335 0.10526 0.11562 -0.099855 0.054075 0.12344 -0.034029 0.24852 0.037664 -0.11076 0.15594 0.30547 -0.18746 -0.14193 0.034696 -0.083305 0.22824 0.057709 -0.032563 0.033427 -0.11247 -0.038431 0.060739 -0.0548 0.012202 -0.40724 0.095602 -0.10314 -0.14812 -0.088889 0.23711 0.058663 0.013013 0.049537 -0.10612 -0.074527 -0.034771 -0.21256 -0.0022727 0.013724 -0.056564 -0.07988 0.26654 -0.045178 0.096584 -0.38221 0.041018 -0.26771 -0.21376 0.23809 0.052539 0.017088 -0.32941 0.20866 -0.090645 -0.14732 -0.046674 0.095564 0.078375 -0.12191 -0.24168 0.15045 0.13148 0.074921 -0.048455 -0.12948 0.048238 -0.18439 0.042413 -0.087755 0.075237 -0.20508 -0.39656 0.020453 0.21669 -0.00098148 0.20593 -0.071046 0.14803 0.070956 0.087446 -0.054237 0.25947 0.13052 0.28978 0.19353 -0.1994 0.12376 0.019065 -0.21273 0.056111 -0.090043 -0.044176 -0.014409 -0.1613 0.2317 0.15126 -0.061453 0.21171 -0.26183 0.23043 -0.073458 -0.043346 -0.39007 0.15569 -0.11803 -0.29501 0.00096107 0.018615 0.26696 -0.073237 -0.21747 0.028676 -0.094739 -0.0051875 0.081182 0.36609 0.33793 -0.19544 -0.1403 0.18674 0.22137 0.011872 -0.48717 0.12108 0.16457 0.10272 -0.084064 -0.0047228 -0.047573 0.13371 0.025584 0.064884 0.13052 0.15045 0.0092388 -0.064355 0.10558 -0.0095101 0.067318 -0.14446 0.086111 -0.15341 -0.15879 0.07 0.22181 0.1396 -0.19146 0.16284 -0.10104 -0.072996 -0.1528 -0.089565 0.25405 0.023246 0.15002 0.067553 0.14941 0.00078389 0.22174 0.5295 -0.34453 -0.29413 0.079146 -0.45361 0.32585 0.030894 0.044054 0.056183 0.021089 -0.00087793 -0.092194 0.14182 
dat 0.17193 -0.029022 0.063015 0.0004664 0.21676 0.18183 0.43184 0.3092 0.42531 -0.0077279 -0.24728 0.26131 0.14149 -0.19319 0.19151 0.1246 0.23757 -0.11815 -0.044682 -0.015347 -0.12185 -0.016803 0.024848 0.095764 0.072831 -0.19672 -0.25554 0.15944 -0.13905 -0.17139 -0.033337 0.28357 -0.13529 0.13679 -0.25989 -0.036109 0.31154 -0.079406 0.082287 -0.071594 0.13416 -0.24749 0.067641 -0.068899 0.038738 0.016921 -0.12164 -0.10555 -0.025922 0.12741 -0.19651 0.060269 0.062161 -0.080197 -0.043171 -0.23044 0.068073 0.059128 -0.14632 -0.1526 -0.033862 0.095565 -0.12054 0.046052 -0.033871 -0.29858 -0.038787 -0.21247 -0.018385 -0.021992 0.11408 -0.040252 0.10396 0.031901 0.16572 0.082641 -0.01174 0.23336 0.083502 0.034737 0.21245 0.10045 0.24817 -0.11983 0.089304 -0.095261 -0.035927 0.03477 -0.30479 0.013047 0.10423 0.032763 0.16214 -0.080614 0.0061082 -0.07061 -0.11994 -0.10351 -0.22167 0.11654 -0.039367 0.17898 -0.17651 -0.001374 0.0062281 -0.053809 -0.30251 0.0095816 -0.022642 0.23687 0.01675 0.063953 -0.040944 -0.20746 -0.18348 -0.11826 0.046367 -0.028143 0.050891 -0.044491 0.14053 -0.1064 -0.23011 -0.1975 0.066295 0.0059896 -0.24812 0.048825 -0.066886 -0.084651 -0.076531 0.15803 0.10107 0.045051 -0.2174 0.019678 0.24724 0.24329 0.10003 -0.18104 0.031685 -0.17558 0.014225 0.22461 0.25565 0.12353 -0.4239 -0.18103 -0.16019 0.14569 -0.059356 -0.012143 -0.3514 -0.021638 -0.18445 0.053243 -0.17157 0.22342 0.075435 -0.066008 -0.031714 0.22237 -0.21286 -0.0903 -0.17659 0.038703 -0.32481 0.00022595 0.12705 0.016943 0.041826 0.068192 -0.35661 0.16144 -0.17542 -0.1401 -0.16382 0.15984 -0.16996 -0.40033 -0.035338 0.088549 0.030218 -0.061411 -0.2098 -0.0094298 -0.02981 -0.038187 0.0032082 0.085006 -0.071005 0.33146 -0.12289 -0.22944 0.077058 -0.07574 -0.02472 0.021225 -0.16294 -0.060889 0.28046 0.070566 -0.12854 -0.074473 -0.22998 0.16726 0.03202 -0.061664 -0.16882 0.18538 0.083818 -0.025979 -0.049902 -0.059526 -0.0083651 -0.036137 -0.037846 0.042893 0.014116 -0.053448 0.088974 0.036485 -0.053148 -0.24214 0.20939 0.084667 -0.169 0.22933 0.15641 -0.015037 0.091792 -0.07813 -0.22585 -0.029964 0.1927 -0.28274 0.27427 -0.14261 0.0064986 -0.22336 -0.16311 0.031864 0.0029659 0.19354 0.050856 0.14841 0.11344 0.015485 -0.060976 0.034829 -0.54264 0.10842 0.064701 0.17171 0.21775 -0.044323 -0.27588 0.091899 -0.096625 0.029983 0.073801 -0.052454 -0.066951 0.028258 0.059904 -0.33223 0.019838 0.0040221 0.034859 -0.011816 -0.1821 0.094229 0.18649 -0.19815 -0.10752 0.21393 -0.079862 -0.22461 -0.09527 0.0015103 0.091137 -0.26547 0.022752 0.014569 0.23644 -0.063115 0.20687 -0.042599 -0.12863 -0.36175 0.023389 -0.027218 0.21622 0.11584 0.081012 0.088728 0.18971 -0.20124 -0.1508 -0.12537 
werd -0.043128 -0.33324 -0.14723 -0.073244 0.31945 -0.022816 -0.20417 0.12049 0.41 0.1774 -0.25899 0.36333 -0.12887 -0.11004 0.19861 0.013259 0.32222 -0.22646 -0.15605 0.15688 -0.05351 -0.13851 -0.10194 0.098928 -0.41762 0.10553 0.39734 0.090394 -0.0035431 -0.12439 0.12831 0.56483 -0.084165 -0.24351 -0.17865 -0.32303 0.55975 0.0333 -0.096384 0.033093 0.0081771 0.0059947 0.34357 -0.047321 -0.0081308 -0.0035397 -0.07225 0.090357 0.074552 -0.14665 -0.13336 0.17496 0.36012 0.10029 -0.26437 -0.32871 0.055 -0.23421 -0.060841 -0.02155 -0.17929 0.059395 -0.12976 0.013432 -0.25763 -0.05033 0.27943 -0.15882 0.1788 -0.18474 -0.03262 -0.35962 -0.21955 -0.060507 0.24586 0.27344 -0.26308 0.20303 0.020838 0.15813 0.058041 0.12435 -0.10102 0.014239 0.054148 -0.15981 0.10486 0.16726 0.27658 -0.20954 -0.14855 -0.32981 0.15274 0.0098161 -0.21195 0.060125 -0.14446 0.03214 -0.078364 -0.047738 0.068131 -0.031047 -0.11004 0.69988 0.24694 -0.17333 -0.13151 -0.018516 -0.094893 0.049446 -0.020684 -0.087197 -0.025878 0.26857 0.06061 0.14045 -0.3145 -0.23408 0.15264 -0.14988 0.18878 -0.048502 0.00012329 -0.20215 0.14218 -0.1694 0.17743 0.31666 0.14901 -0.17989 -0.19993 -0.24197 0.1273 0.23624 -0.013253 0.074739 -0.01386 0.34724 0.12938 0.29555 -0.012347 -0.037962 -0.19247 0.37897 0.076696 0.043908 0.066497 0.10731 -0.21481 0.18325 -0.18576 0.074834 -0.30094 0.35023 -0.37103 0.16221 -0.2171 0.33493 -0.17495 -0.328 -0.023144 0.078821 0.027379 -0.2763 -0.15693 -0.068237 -0.35129 0.055758 0.051241 -0.27353 0.031435 -0.077553 -0.059637 0.30753 -0.070988 0.0068696 0.048347 -0.21207 -0.21439 -0.17852 -0.040374 -0.028919 -0.084687 -0.45461 0.025395 0.018675 -0.12827 0.034669 -0.32127 0.20151 -0.085784 -0.016818 0.04813 -0.21056 0.1486 -0.025886 -0.18213 0.069089 -0.30786 -0.47041 0.13941 0.066486 -0.17792 -0.14197 -0.11622 0.27273 -0.13169 -0.06777 -0.07554 0.093322 -0.042169 0.24514 0.10524 0.18231 -0.079859 -0.13621 0.045455 0.17059 0.25361 -0.18889 0.091142 -0.031301 0.073246 -0.2296 0.2463 0.1105 -0.084721 0.023897 -0.025779 -0.056248 -0.033394 -0.079098 -0.035928 -0.0021763 0.28005 -0.034712 0.13242 -0.047212 -0.238 0.086964 0.029459 -0.047454 -0.07978 0.041088 0.20187 0.083766 -0.01681 -0.088725 0.10894 0.067252 -0.24449 -0.11422 0.20389 -0.15582 -0.036103 0.23568 0.070747 0.19545 -0.16922 0.15992 0.18185 0.12902 0.10101 0.21685 -0.26174 -0.019603 0.021371 -0.36657 0.13731 -0.18428 -0.39132 0.09506 0.034644 0.13261 0.18482 -0.1364 -0.012362 0.013783 -0.065422 -0.036967 0.27838 -0.02269 -0.0072655 0.2009 0.17863 0.014303 0.085283 0.13125 -0.10798 -0.11416 0.11206 -0.20615 0.062773 -0.25047 0.094816 -0.016678 0.24944 -0.19745 -0.18897 -0.056395 
die 0.11913 -0.014541 0.29482 0.18775 0.26196 0.094054 0.13247 -0.013874 0.11545 0.087773 -0.18472 0.15148 -0.049473 -0.042718 -0.23121 -0.051794 -0.095815 -0.0016603 0.067075 0.25375 -0.18359 0.063982 0.068368 0.13057 -0.14568 0.03402 0.036174 -0.0035989 -0.23907 -0.12569 0.16297 0.049488 -0.11527 -0.23898 -0.031544 -0.20283 0.34625 -0.094778 0.044305 0.022623 0.14338 -0.10822 0.08149 0.11777 0.20704 -0.024968 0.0029461 -0.059343 -0.07061 0.32005 0.045765 -0.03116 0.0025361 -0.011298 -0.078556 -0.20939 0.13001 -0.079382 -0.18498 -0.077003 -0.0032312 0.021638 -0.077433 -0.10035 -0.20305 -0.21917 0.12188 -0.18484 0.0037361 0.083409 0.083177 -0.094535 -0.12713 0.15209 0.2071 0.21738 0.041893 -0.10592 0.077035 -0.15039 0.087656 -0.055506 0.08727 -0.17344 0.035612 -0.097227 0.019932 -0.033891 -0.053633 -0.11725 0.15996 0.064934 0.023685 -0.11408 -0.080983 -0.059918 -0.1454 -0.072589 -0.2155 0.082255 -0.036982 0.29049 -0.14223 -0.085381 0.068075 -0.0073623 -0.086032 0.14778 -0.055661 0.20759 -0.035619 0.17686 -0.25103 -0.16021 -0.070306 -0.03772 0.0053717 -0.057561 -0.0049809 0.061137 0.084959 -0.13139 -0.15672 -0.10502 -0.058751 -0.064481 -0.1425 -0.048239 0.039612 0.019361 -0.11582 -0.055149 0.13072 -0.1099 -0.066411 -0.1694 0.065812 0.12122 0.11126 0.074168 -0.076911 -0.094893 0.059715 0.24237 -0.037497 0.13236 -0.131 -0.024469 -0.11307 0.12129 0.03311 -0.15138 -0.2523 0.043292 -0.073092 -0.021532 -0.091843 0.28724 -0.12697 0.0088544 -0.097734 -0.037687 -0.11983 0.047121 -0.057735 -0.28886 -0.24962 -0.030068 -0.087511 0.20337 -0.13117 0.10032 -0.20054 0.081009 -0.16564 -0.20952 -0.041338 0.29074 0.072196 0.0031916 0.039276 -0.11461 -0.01019 0.21789 0.076043 0.044921 -0.084087 -0.11524 -0.0056309 -0.037292 -0.060916 0.072515 -0.13525 -0.22868 -0.068576 -0.012736 -0.13864 0.015347 -0.19797 0.040784 0.16992 0.0072043 -0.021279 0.088215 -0.16137 0.10909 0.062158 -0.033898 -0.23922 0.30172 0.092347 -0.022326 -0.067602 -0.1643 -0.014082 0.15189 0.045015 0.081691 0.066837 0.0062828 0.049502 -0.023496 0.23844 -0.04215 0.27194 0.23781 -0.3098 0.089577 0.14468 -0.16702 -0.1345 0.15294 -0.053203 -0.17302 0.29168 -0.23324 0.15499 -0.0022182 -0.068873 0.11938 0.0080025 -0.073377 0.037734 0.25391 0.074586 -0.1418 0.094818 0.19854 0.10288 0.094656 -0.083314 0.041167 0.020824 -0.013522 -0.21862 -0.10999 -0.25001 0.12709 -0.052783 -0.15072 -0.05913 -0.17893 0.19245 -0.027571 0.098158 -0.16497 0.22663 -0.0056699 0.13949 -0.099535 -0.077792 0.066208 0.28707 -0.14149 -0.17423 0.19183 0.092308 -0.17151 -0.16605 -0.066298 0.11266 -0.16793 0.098691 0.078078 0.050558 -0.10825 0.21347 0.080799 -0.19689 -0.077227 -0.15834 -0.28545 0.30352 0.03316 -0.0043907 0.043653 0.058779 -0.17814 -0.12607 0.19428 
als 0.16176 -0.24257 -0.030726 0.030504 0.23662 0.022427 -0.016932 0.17231 0.22512 0.14713 -0.3729 -0.10479 0.20377 -0.10339 -0.051179 -0.13505 0.11501 -0.075226 0.036149 0.08145 -0.14804 0.049892 -0.019976 0.22068 -0.049366 0.052932 0.068029 0.12577 0.0075398 -0.061947 -0.14984 0.14934 0.084893 -0.17342 -0.084492 0.027103 0.38778 0.028915 0.061336 -0.11881 0.60335 -0.33095 0.13931 0.12892 0.21982 0.1066 0.023488 0.027343 0.069448 -0.0079353 0.079418 0.13669 0.10913 -0.085342 0.25716 -0.14538 0.12284 -0.057488 -0.11728 -0.12863 0.10297 0.077082 -0.089891 0.0011958 -0.17683 -0.033277 0.33925 0.23 -0.1235 0.084465 0.25477 -0.12022 -0.17916 0.14001 0.21436 -0.015166 -0.088486 0.045983 -0.048989 -0.088917 0.062957 -0.16031 0.191 -0.22308 0.081555 -0.33308 0.0074129 0.073046 0.11233 -0.2393 -0.058127 -0.12375 0.014085 -0.10667 -0.02782 -0.064827 -0.13649 -0.012296 -0.16801 -0.13592 0.061173 0.20762 -0.28781 0.12929 0.10024 0.024849 -0.25507 0.065377 -0.15161 -0.069995 0.25001 0.077363 -0.18217 -0.00037827 -0.20557 -0.036637 0.060254 -0.080279 -0.19467 -0.27139 0.036011 -0.24965 0.026916 -0.045981 -0.16658 -0.048291 -0.020277 -0.069145 -0.044857 -0.18696 -0.18572 0.093987 0.074947 -0.1702 -0.098543 0.065919 0.015314 -0.073034 0.010721 -0.0043193 -0.17954 -0.051848 -0.09185 0.12792 -0.088234 -0.017426 -0.1706 -0.31102 0.18082 0.010921 -0.42788 -0.11662 -0.3657 0.099647 -0.076327 0.20196 -0.19516 0.16406 2.2709e-05 0.11055 -0.12165 -0.035147 -0.005979 0.032681 0.01018 -0.23504 0.085731 0.038449 0.43033 0.31906 -0.099035 0.12004 -0.074365 -0.017704 0.09624 -0.09397 0.042044 0.070135 -0.078874 0.052124 0.26702 -0.16253 0.2844 -0.052389 0.074729 0.06105 -0.049168 -0.23387 -0.098885 0.010522 -0.10124 -0.02698 -0.026895 -0.086181 0.0321 0.14195 -0.14075 0.091214 -0.2218 -0.2474 -0.11356 0.11426 -0.095713 -0.18067 -0.10866 0.094281 -0.2547 0.021639 -0.23723 0.31467 0.017171 0.14418 0.11262 -0.34821 -0.13851 0.11213 0.0254 0.14482 0.031702 0.22315 -0.011269 0.053433 0.070064 -0.0066085 0.28765 0.070402 -0.13822 0.011436 0.025919 -0.15579 0.0065765 -0.037358 0.070498 -0.14538 0.12212 -0.15224 -0.069342 -0.056397 -0.085916 0.11915 0.0040147 0.12101 -0.22624 0.27235 0.15153 -0.061216 0.20143 0.20806 -0.016749 0.34432 -0.1585 -0.12703 0.0088131 0.1755 -0.2369 0.10783 -0.089983 0.31908 -0.12111 0.10084 0.16269 -0.050819 0.055607 -0.15589 0.11069 -0.21547 0.08898 0.12325 0.052219 -0.067483 -0.0080393 0.019694 0.30395 -0.17155 -0.11932 0.22078 0.010805 -0.019601 -0.23499 0.028136 0.28528 -0.065103 0.21966 0.14346 0.24185 0.060219 0.099588 0.12581 -0.42456 -0.10399 0.14158 -0.087464 0.084942 0.00075178 0.15295 0.023622 0.1373 -0.18766 -0.4179 0.095276 
aan 0.1819 0.063084 0.22313 -0.15786 0.18752 0.065265 0.21901 0.096486 0.060759 0.20137 -0.28197 0.47443 0.05757 -0.4386 0.52323 0.13378 -0.1052 -0.16917 0.27512 0.024265 -0.010752 -0.21144 0.16864 0.0040774 0.028799 -0.11715 -0.022598 0.14748 -0.20888 0.22098 0.15701 0.45897 -0.15948 -0.18822 -0.16591 -0.12815 0.3401 -0.27044 0.22993 -0.14392 -0.13318 -0.069255 -0.013863 0.073589 0.5792 0.0095655 0.26264 -0.21452 0.079892 0.10366 0.056834 0.087019 0.14283 0.10011 0.007835 -0.067009 -0.22452 -0.070435 -0.30205 0.15256 0.12219 -0.26079 -0.071726 -0.04982 0.053671 -0.00076859 0.12863 -0.040323 0.16183 0.3473 0.23584 -0.14733 0.14249 0.18922 0.17935 -0.031474 -0.085527 0.015785 0.025246 0.15571 0.0071372 0.061568 0.20911 -0.087294 -0.094864 -0.50935 -0.077099 -0.14739 -0.016555 -0.19807 0.25236 0.019788 0.01202 0.19402 -0.085268 0.093427 -0.018142 0.081698 -0.11382 -0.10912 -0.074724 0.00058384 -0.28026 -0.10403 0.056362 0.15571 -0.35395 0.19862 -0.33496 0.26997 -0.17847 0.070612 0.16789 -0.40559 0.031178 -0.18551 0.25852 -0.093757 0.18716 -0.083782 0.095345 -0.040957 0.10676 -0.34464 -0.15183 0.14228 -0.2118 0.060907 0.071073 0.39704 0.015099 -0.34843 0.17889 -0.35471 -0.053951 -0.0078508 0.15165 -0.0024077 0.34427 -0.009075 -0.085053 -0.013248 0.0064456 0.1079 -0.13047 -0.038075 -0.12009 -0.065949 -0.029033 0.079003 -0.084316 0.10038 -0.30398 -0.12496 0.00010338 0.055688 -0.23842 0.0075597 -0.24961 0.16214 0.098909 0.15748 0.27349 0.039021 0.34904 -0.10392 -0.22265 -0.067256 0.12698 -0.12219 -0.1323 -0.22387 -0.11826 -0.0078683 -0.12743 -0.30052 0.43003 0.1572 -0.082135 -0.06596 -0.042188 -0.059159 -0.048728 0.1117 0.11359 -0.0010273 -0.02361 -0.17653 0.15094 0.092978 -0.0040125 -0.085339 0.061892 -0.31018 -0.19687 -0.057707 -0.2084 -0.10657 -0.17005 -0.43876 -0.10124 -0.17045 0.12792 -0.026124 -0.28968 -0.14912 0.0078831 0.14286 -0.36748 -0.13435 -0.049152 -0.0011134 -0.0020937 -0.1733 -0.2377 -0.17301 -0.11925 0.079927 0.0892 -0.21912 0.023996 -0.16668 0.15833 -0.019902 0.088353 0.15032 -0.28148 -0.1812 0.035359 0.16155 -0.34795 -0.086363 -0.091761 -0.10409 0.035183 -0.045708 0.12476 0.016743 0.054534 -0.033452 0.074505 -0.13666 0.033165 0.40309 0.10455 -0.036451 -0.12703 0.090026 -0.031391 0.010586 -0.062611 -0.1861 0.37344 -0.077375 0.22021 -0.11516 -0.37659 -0.17845 0.32864 -0.076604 0.020164 0.055839 0.11795 -0.024747 -0.097175 -0.023726 0.07691 -0.08545 0.055821 0.0040136 -0.0027148 0.16538 0.062855 -0.33478 0.14538 0.11021 -0.12436 -0.23119 -0.092766 -0.28099 0.011383 -0.2969 0.25084 0.12048 0.14202 -0.080503 -0.12754 0.17235 -0.21369 -0.34422 -0.16851 -0.36031 -0.061985 -0.042397 0.24233 0.071009 0.38188 -0.14953 -0.31075 0.05755 
was 0.22749 0.013571 0.10818 -0.0095367 0.18993 0.018795 0.015903 -0.013073 0.28244 0.093247 -0.33206 0.21154 0.071658 0.060402 0.080934 0.15747 0.09031 -0.095091 -0.224 0.19689 -0.17568 -0.13869 -0.19969 0.20957 -0.12725 -0.053919 0.19807 0.33429 -0.1157 -0.17733 0.34453 0.49376 -0.12238 -0.16138 -0.09041 -0.094895 0.35723 -0.11729 0.13822 0.094684 0.35316 0.040599 0.021586 -0.15947 0.093587 0.0033895 0.1023 -0.20638 -0.032741 -0.070883 -0.096649 -0.1303 0.32184 0.10414 -0.031183 -0.128 0.10679 -0.011659 -0.087049 0.13542 -0.12744 0.081303 -0.090437 -0.056896 -0.14728 -0.21927 0.13991 0.060658 0.0012784 -0.056227 0.08381 -0.25484 -0.25601 0.10352 0.35318 -0.24114 -0.21002 0.062858 0.044507 -0.077555 0.14822 -0.095246 -0.085542 0.098205 0.17631 -0.17573 0.068456 0.26905 -0.0056154 0.12088 -0.15357 -0.33681 0.34825 -0.1498 -0.022475 0.20499 -0.11139 -0.28502 0.14365 -0.16695 0.123 0.18516 -0.30547 0.14721 0.17091 -0.0056491 -0.17657 0.014914 -0.074798 -0.11489 0.057823 -0.14651 -0.13752 -0.12016 0.098666 -0.029523 0.049388 -0.11831 0.14336 -0.19654 0.11901 -0.20555 0.12197 -0.080322 -0.01641 -0.13558 0.132 0.14963 0.11495 -0.016786 -0.23565 -0.23506 0.039196 0.033732 0.092296 0.16255 0.072177 -0.022648 0.052881 0.19949 -0.28724 0.062995 -0.083328 0.20277 0.08437 0.19055 -0.22383 0.12807 -0.159 0.0022951 -0.20088 0.07125 -0.51538 0.056827 -0.15281 -0.1097 -0.10834 0.19879 0.10245 -0.12995 0.039738 0.061147 -0.2288 -0.19625 0.087159 0.096931 -0.19381 -0.051594 -0.0029131 0.073359 0.041654 0.12619 -0.18183 0.25792 -0.098677 -0.37983 -0.044434 0.14411 -0.057621 -0.073215 0.073539 -0.087497 -0.070424 -0.08846 0.26901 0.30213 0.0051791 0.041594 -0.043703 0.057173 -0.13223 0.093386 -0.15328 -0.037508 0.0095567 0.058226 -0.22906 -0.033692 -0.43621 -0.26258 0.069762 0.071242 -0.10589 0.15247 0.06773 0.021809 -0.058234 -0.02928 -0.23949 0.1551 0.19629 0.54052 0.046375 -0.066263 -0.037459 0.082874 -0.04173 0.14036 0.32257 -0.18051 -0.2509 -0.14359 0.17411 0.011485 0.084221 -0.0023609 -0.10934 0.20218 0.073473 -0.15617 0.055336 0.058875 -0.015396 -0.27874 0.18817 -0.20825 -0.0096746 -0.28885 0.079034 -0.17703 0.0034491 -0.024434 -0.099592 0.24876 0.27753 -0.308 0.10543 -0.0036876 0.041718 0.2514 -0.14648 0.017587 0.27819 0.29743 -0.044272 -0.086419 -0.00065012 -0.078428 -0.096099 -0.082015 0.23996 0.034878 0.30828 0.17918 -0.069332 -0.060458 0.11287 -0.15527 0.030189 -0.19612 -0.03618 0.23653 -0.0084348 0.034071 0.011944 -0.14439 -0.11582 -0.12732 -0.051668 0.025902 0.33062 0.0053486 -0.078182 0.039061 0.22461 0.052225 0.29875 0.10507 -0.19914 -0.053372 0.0079991 -0.31767 0.39709 0.14621 0.050951 0.061258 0.13348 -0.14122 -0.16728 -0.1353 
ook 0.21812 -0.16703 0.057855 0.085147 0.17365 0.13164 0.15294 0.30198 0.28994 0.03603 -0.29611 0.257 0.069541 -0.16371 0.01534 -0.11487 0.096502 -0.043602 0.14204 0.17746 -0.029134 -0.0091783 -0.053937 0.1075 -0.11475 -0.14859 0.017345 0.11145 0.078686 0.09527 0.081059 0.14045 -0.019864 -0.075837 -0.19463 -0.089755 0.24831 -0.020261 0.048345 -0.097623 0.20993 -0.22901 0.14626 0.061205 0.08002 0.16729 -0.071181 -0.050268 -0.062053 0.027717 0.081781 -0.011064 0.045782 -0.12391 0.1001 -0.091511 0.04539 -0.070246 -0.086797 0.066503 0.05455 0.014661 -0.074637 -0.094889 0.10373 -0.26344 0.14576 0.028788 -0.10343 0.030252 0.35511 -0.095464 -0.16895 0.020726 -0.10917 -0.12315 -0.078746 0.17605 -0.052311 -0.047583 0.028146 -0.21759 0.21155 -0.10682 -0.014438 -0.13289 0.088887 -0.096241 -0.014673 -0.024415 0.10909 -0.089619 0.041725 0.13262 0.0011578 0.021383 -0.07678 0.043223 -0.06671 -0.037039 -0.062631 0.16727 -0.049968 0.077253 0.10953 0.019034 -0.1861 0.16259 -0.19762 0.10408 -0.042501 0.095632 -0.032597 0.020687 -0.047085 0.093508 -0.092303 -0.17196 -0.11107 -0.10383 0.078109 0.059265 -0.057706 -0.11748 -0.10554 0.046433 -0.17236 0.049241 -0.031319 -0.2226 -0.082064 0.039294 0.055753 -0.14895 -0.073427 0.13197 0.07489 -0.023054 0.12335 -0.0081119 -0.093271 -0.10726 -0.061915 0.072123 0.076783 0.077527 -0.03731 -0.15456 -0.046771 0.042583 -0.072826 -0.11049 -0.27692 0.060894 0.07449 -0.011914 -0.07132 0.16608 -0.077823 0.036447 0.044474 0.14077 -0.17032 -0.076083 -0.04923 -0.084597 -0.019496 -0.13175 -0.035023 -0.030897 0.030764 0.048634 -0.19374 0.025422 -0.12772 -0.13588 -0.11427 0.18714 0.081025 -0.098623 0.17641 -0.10037 0.023584 0.064936 0.073817 0.0074847 -0.10222 -0.24634 0.15047 0.10676 -0.02829 0.061917 -0.024615 0.018887 -0.020905 0.12424 -0.18185 0.0016426 -0.17551 -0.17279 0.0069015 0.078232 -0.17358 -0.047307 -0.11645 0.16886 0.089964 -0.028717 -0.1584 0.12445 0.063952 0.13591 0.051117 -0.035198 -0.045573 0.087327 -0.15462 -0.0092584 0.046924 0.090669 0.030557 -0.061358 0.012585 -0.089324 0.22184 0.23843 -0.20448 -0.12913 0.11467 -0.063296 0.03703 0.041764 -0.059572 -0.1636 0.070458 -0.16576 0.16003 -0.051012 -0.001682 -0.12593 0.15001 -0.025536 0.019927 0.28288 0.091569 0.020106 -0.01878 0.27088 -0.034101 0.11859 -0.21761 0.019639 0.20416 0.14476 -0.07218 -0.051687 -0.098062 0.32214 -0.089345 0.011219 -0.07115 -0.0015227 0.12504 -0.06481 0.070748 0.077644 0.15508 0.083393 0.078051 -0.16454 -0.031618 0.015884 0.12334 -0.1585 -0.27291 0.25874 0.16149 -0.14542 -0.15003 -0.015058 0.090739 -0.10905 -0.039325 -0.010509 0.1487 0.073746 0.062819 0.23444 -0.11053 -0.24154 0.15534 -0.22468 0.2823 0.25333 0.17086 0.065716 0.26321 -0.11224 -0.34195 0.19782 
of 0.32038 0.19253 -0.26884 0.069633 0.12954 -0.07809 0.1834 0.051775 -0.003686 0.079599 -0.26868 0.29395 0.0018437 -0.41794 -0.14032 -0.054428 0.37967 -0.12393 0.089785 0.07547 0.041698 -0.013674 -0.054922 -0.32349 -0.18226 -0.37655 0.2607 -0.038883 -0.19328 0.17635 -0.081423 0.043844 0.044422 -0.17405 -0.037657 0.20906 0.22539 0.2186 0.11114 -0.40653 0.25154 -0.19825 -0.081087 0.011057 0.089663 -0.06255 0.056112 -0.3163 0.096012 0.033411 0.21601 0.1787 0.15892 -0.11492 0.13572 0.41539 -0.1182 -0.070779 -0.093421 -0.12716 -0.076398 0.043599 0.12506 -0.14978 -0.12218 -0.080011 0.043342 0.029479 0.16274 0.22452 0.11916 0.055789 0.085676 -0.1115 0.20395 0.28489 -0.1388 0.409 -0.12257 0.026345 -0.12972 -0.46616 -0.17679 -0.23809 -0.13819 -0.045122 0.067508 -0.099926 0.17973 -0.11925 -0.14441 -0.15852 0.012776 -0.33883 -0.054311 -0.10614 -0.070207 -0.21037 -0.036916 -0.26375 -0.024539 0.26159 -0.31731 -0.139 0.054995 0.19611 -0.31969 0.12303 -0.052614 -0.023105 -0.08535 0.23939 -0.060639 -0.082702 0.077771 0.036 -0.099271 0.099946 0.16143 -0.10307 0.23344 0.011235 -0.2313 -0.3224 -0.19846 -0.10321 -0.14755 -0.087504 -0.1407 -0.11734 -0.018578 -0.012962 -0.091034 -0.23698 -0.18223 -0.13744 -0.044118 0.050449 0.13972 -0.069897 -0.0095157 -0.37232 -0.13853 -0.073313 0.10005 -0.00558 -0.1571 -0.21828 0.28605 -0.21345 -0.11966 0.055421 -0.098747 0.12399 0.17739 -0.028822 -0.12553 0.063078 -0.066776 -0.21142 -0.06526 -0.26463 -0.23041 0.12202 0.044571 -0.03213 -0.056074 -0.10857 -0.14088 -0.18678 -0.2732 0.079168 -0.24841 0.17321 0.033951 -0.14417 0.30975 0.56037 0.067491 0.21613 0.47301 0.030116 -0.02222 0.39773 0.07675 -0.058617 -0.11934 -0.18855 0.24394 -0.27636 -0.14138 0.34581 -0.23515 -0.26027 0.202 0.078758 0.079203 -0.31679 -0.35884 -0.19287 0.034661 0.11354 -0.11659 -0.10414 -0.16087 0.24253 -0.095987 -0.11431 -0.13973 0.16307 -0.11993 -0.092112 0.19354 -0.20305 -0.2296 -0.20375 -0.12718 0.11287 -0.28573 0.26536 -0.037373 -0.12952 0.16493 0.46184 0.015289 0.22317 -0.31342 -0.17597 0.10525 0.13731 -0.25003 -0.067265 -0.12448 -0.027231 0.64848 -0.2423 0.15152 -0.29728 -0.23992 0.060509 -0.047178 0.40405 0.078997 0.20445 -0.030134 0.15346 -0.0064383 0.044715 0.18916 0.14282 -0.26448 -0.025411 0.2921 0.1023 -0.14113 -0.040115 0.34089 0.22661 -0.14716 0.23115 0.14599 0.11993 0.026178 -0.14329 0.31937 0.089211 0.010847 0.060557 0.20968 -0.19966 0.01915 0.081146 0.052784 -0.080916 0.084595 -0.063456 -0.0043118 -0.35488 -0.23396 0.25217 0.12404 -0.073844 -0.014545 -0.061947 0.15631 -0.17728 0.13906 -0.21349 -0.17298 0.2881 -0.013438 -0.30063 0.27891 0.1027 0.028917 0.0027897 0.52291 0.0011943 -0.48514 0.16739 
score 0.33844 -0.26434 -0.52873 0.27379 0.0066473 0.62387 -0.20164 0.52634 0.95753 -0.038284 -1.4946 0.39582 -0.15268 -0.98006 1.2733 0.4746 0.50672 0.38793 -0.39274 0.18807 -0.62019 0.11275 0.2749 0.48808 -0.1058 -0.76308 0.11962 0.38422 -0.57536 -0.17054 0.38974 0.13028 0.014226 0.61611 -0.71051 -0.33027 -0.58095 0.42884 0.34714 0.0031886 -0.20193 -0.4352 0.35509 0.19799 0.69675 0.22641 -0.31722 -0.38864 0.45634 0.81078 -0.091921 -0.15436 -0.74187 -0.11109 -0.14294 0.22941 0.44768 -0.84713 -0.47986 -0.85421 -0.5172 -0.93048 -0.59238 -0.077113 -0.27867 0.31814 0.10238 0.25304 -0.060735 -0.30934 0.10509 -0.12583 0.050989 0.17193 0.33589 0.2023 0.24439 -0.045457 0.52175 0.082736 -0.27016 -0.2077 -0.20639 -0.45272 -0.045428 -0.17494 -0.057925 -0.11669 0.20404 -0.026661 0.51276 0.05551 0.3884 -0.29147 0.11457 -0.44369 -0.069172 -0.63779 0.22824 -0.083046 -0.30093 0.094648 -0.58837 0.28543 0.44614 -0.17831 -0.20123 0.34774 0.032108 -0.16287 -0.16436 0.53051 0.27467 0.42223 0.78239 0.28557 0.18394 0.37595 -0.31847 0.18875 0.2571 0.15526 -0.63957 -0.5841 0.74119 0.45461 0.1294 -0.55305 -0.54629 0.58005 0.099743 0.043071 0.61873 -0.23299 0.26373 -0.1815 -0.3672 -0.174 -0.10399 -0.36013 0.020842 0.1189 0.27154 -0.228 -0.45381 -0.38424 0.07892 -0.32185 0.39015 -0.16975 -0.71726 -0.30815 -0.01776 0.84608 -0.82709 -0.020035 0.40808 0.62658 0.99722 0.12993 -0.18514 -0.18716 0.52785 0.48499 -0.28773 -0.50596 0.37377 -0.07213 -0.040152 -0.29807 -0.77133 0.14911 -0.37371 0.28897 0.45086 -0.67666 0.33706 0.57438 0.57432 0.8878 0.10647 -0.46375 -0.03574 -1.3132 0.063603 0.21728 0.67842 -0.011654 -0.32422 0.43925 -0.31932 -0.12526 0.53257 0.14908 -0.13885 1.2196 -0.1872 0.53245 -0.52711 -0.11867 -0.74877 0.45346 -0.40659 -0.52285 0.42096 0.47179 0.37657 1.1449 0.65193 0.0039696 -0.74653 0.65226 -0.127 0.30924 -0.006372 0.33603 -0.14597 0.45617 -0.94751 0.84048 -0.12791 -0.0065013 0.70918 -0.22824 -0.021631 0.25075 0.18856 0.32359 1.0381 0.35076 -0.90347 0.24398 -0.25375 -0.45596 -0.22407 0.0033558 0.21809 -0.11121 -0.31128 0.51557 -0.50159 -0.036386 0.090243 0.64551 0.53983 0.11977 -0.27884 -0.34217 -0.44436 -0.35817 0.11224 0.48593 -0.14564 -0.55681 -0.22326 -0.49669 0.91951 -0.24406 -0.51474 -0.51018 0.6779 -0.5546 -0.19389 1.1003 0.49456 -0.3107 -0.13703 -0.30475 0.82646 -0.29291 0.67739 0.3025 0.11052 -0.35466 0.47066 0.21671 0.061315 -0.81684 0.12222 0.51278 0.36802 -0.44143 -0.45734 0.2376 0.49304 0.061913 0.423 -0.516 -0.18447 -0.3082 0.15756 -0.49465 0.34757 0.80363 -0.33898 -0.45999 0.094515 -0.37081 -0.37899 -0.39651 
niet 0.21173 -0.11005 -0.0158 0.098654 0.24144 0.15723 0.094556 0.3206 0.31947 0.0916 -0.33603 0.19922 0.082403 0.043812 -0.026223 -0.050048 0.21954 0.10975 0.097246 0.1107 -0.13758 -0.18896 -0.099565 0.17386 -0.14517 -0.31266 -0.048076 0.24473 -0.14355 -0.0193 0.099311 0.1701 -0.26046 0.044562 -0.31354 -0.10554 0.2154 0.12595 0.24088 -0.07231 0.26596 -0.30595 0.056464 0.13976 0.024014 0.035964 0.12986 -0.2762 -0.096964 0.25922 -0.039004 0.085803 -0.019658 -0.32011 -0.13733 -0.12469 0.034549 -0.12299 -0.17815 -0.24017 -0.038816 0.23071 -0.06318 -0.11879 -0.071311 -0.18589 -0.032748 -0.1117 -0.21015 0.0043176 0.11448 -0.14047 0.14222 -0.12926 0.063259 -0.013883 -0.095605 0.075984 0.16098 0.060842 0.10427 -0.020224 0.43823 -0.11811 0.117 -0.18021 -0.11112 0.1125 -0.27078 -0.12339 -0.0091851 -0.03815 0.07967 -0.094096 0.073197 0.14854 -0.24404 -0.062657 -0.13463 -0.049094 -0.064226 0.29456 -0.054488 0.13276 0.096074 0.063437 -0.30343 0.17734 -0.16772 0.11997 -0.15304 0.20017 -0.17944 -0.13842 -0.025311 0.06014 -0.035378 0.10311 -0.085856 0.07609